{"learner":{"attributes":{},"feature_names":[],"feature_types":[],"gradient_booster":{"model":{"gbtree_model_param":{"num_trees":"400","size_leaf_vector":"0"},
"tree_info":[0,0,0,0,0,0,0,0,0,0,0,0,0,0,0,0,0,0,0,0,0,0,0,0,0,0,0,0,0,0,0,0,0,0,0,0,0,0,0,0,0,0,0,0,0,0,0,0,0,0,0,0,0,0,0,0,0,0,0,0,0,0,0,0,0,0,0,0,0,0,0,0,0,0,0,0,0,0,0,0,0,0,0,0,0,0,0,0,0,0,0,0,0,0,0,0,0,0,0,0,0,0,0,0,0,0,0,0,0,0,0,0,0,0,0,0,0,0,0,0,0,0,0,0,0,0,0,0,0,0,0,0,0,0,0,0,0,0,0,0,0,0,0,0,0,0,0,0,0,0,0,0,0,0,0,0,0,0,0,0,0,0,0,0,0,0,0,0,0,0,0,0,0,0,0,0,0,0,0,0,0,0,0,0,0,0,0,0,0,0,0,0,0,0,0,0,0,0,0,0,0,0,0,0,0,0,0,0,0,0,0,0,0,0,0,0,0,0,0,0,0,0,0,0,0,0,0,0,0,0,0,0,0,0,0,0,0,0,0,0,0,0,0,0,0,0,0,0,0,0,0,0,0,0,0,0,0,0,0,0,0,0,0,0,0,0,0,0,0,0,0,0,0,0,0,0,0,0,0,0,0,0,0,0,0,0,0,0,0,0,0,0,0,0,0,0,0,0,0,0,0,0,0,0,0,0,0,0,0,0,0,0,0,0,0,0,0,0,0,0,0,0,0,0,0,0,0,0,0,0,0,0,0,0,0,0,0,0,0,0,0,0,0,0,0,0,0,0,0,0,0,0,0,0,0,0,0,0,0,0,0,0,0,0,0,0,0,0,0,0,0,0,0,0,0,0,0,0,0,0,0,0,0,0,0,0,0,0,0,0,0,0,0,0,0,0,0,0,0,0],
"trees":
[
{
"base_weights":[0.0,0.0,0.0,0.0,0.0,0.0,0.0],
"categories":[],"categories_nodes":[],"categories_segments":[],"categories_sizes":[],
"default_left":[true,true,true,false,false,false,false],
"id":0,
"left_children":[1,3,5,-1,-1,-1,-1],
"loss_changes":[0.0,0.0,0.0,0.0,0.0,0.0,0.0],
"parents":[2147483647,0,0,1,1,2,2],
"right_children":[2,4,6,-1,-1,-1,-1],
"split_conditions":[6.7876899719238281e+01,3.5564022064208984e+01,2.2185578346252441e+00,-6.7120239138603210e-02,2.8313880786299706e-02,9.0019822120666504e-02,9.4335444271564484e-02],
"split_indices":[7,7,4,0,0,0,0],
"split_type":[0,0,0,0,0,0,0],
"sum_hessian":[0.0,0.0,0.0,0.0,0.0,0.0,0.0],
"tree_param":{"num_deleted":"0","num_feature":"16","num_nodes":"7","size_leaf_vector":"0"}
},
{
"base_weights":[0.0,0.0,0.0,0.0,0.0,0.0,0.0],
"categories":[],"categories_nodes":[],"categories_segments":[],"categories_sizes":[],
"default_left":[true,true,true,false,false,false,false],
"id":1,
"left_children":[1,3,5,-1,-1,-1,-1],
"loss_changes":[0.0,0.0,0.0,0.0,0.0,0.0,0.0],
"parents":[2147483647,0,0,1,1,2,2],
"right_children":[2,4,6,-1,-1,-1,-1],
"split_conditions":[6.7876899719238281e+01,3.8795253753662109e+01,1.5803350210189819e+00,-5.8274682611227036e-02,3.2869409769773483e-02,8.5885077714920044e-02,8.1697233021259308e-02],
"split_indices":[7,7,5,0,0,0,0],
"split_type":[0,0,0,0,0,0,0],
"sum_hessian":[0.0,0.0,0.0,0.0,0.0,0.0,0.0],
"tree_param":{"num_deleted":"0","num_feature":"16","num_nodes":"7","size_leaf_vector":"0"}
},
{
"base_weights":[0.0,0.0,0.0,0.0,0.0,0.0,0.0],
"categories":[],"categories_nodes":[],"categories_segments":[],"categories_sizes":[],
"default_left":[true,true,true,false,false,false,false],
"id":2,
"left_children":[1,3,5,-1,-1,-1,-1],
"loss_changes":[0.0,0.0,0.0,0.0,0.0,0.0,0.0],
"parents":[2147483647,0,0,1,1,2,2],
"right_children":[2,4,6,-1,-1,-1,-1],
"split_conditions":[6.7876899719238281e+01,3.2332786560058594e+01,2.2185578346252441e+00,-5.8441095054149628e-02,1.8286257982254028e-02,7.5009003281593323e-02,7.9172581434249878e-02],
"split_indices":[7,7,4,0,0,0,0],
"split_type":[0,0,0,0,0,0,0],
"sum_hessian":[0.0,0.0,0.0,0.0,0.0,0.0,0.0],
"tree_param":{"num_deleted":"0","num_feature":"16","num_nodes":"7","size_leaf_vector":"0"}
},
{
"base_weights":[0.0,0.0,0.0,0.0,0.0,0.0,0.0],
"categories":[],"categories_nodes":[],"categories_segments":[],"categories_sizes":[],
"default_left":[true,true,true,false,false,false,false],
"id":3,
"left_children":[1,3,5,-1,-1,-1,-1],
"loss_changes":[0.0,0.0,0.0,0.0,0.0,0.0,0.0],
"parents":[2147483647,0,0,1,1,2,2],
"right_children":[2,4,6,-1,-1,-1,-1],
"split_conditions":[6.7876899719238281e+01,1.4335937500000000e+02,1.5803350210189819e+00,-4.6653524041175842e-02,4.0630534291267395e-02,7.3990218341350555e-02,6.9819837808609009e-02],
"split_indices":[7,0,5,0,0,0,0],
"split_type":[0,0,0,0,0,0,0],
"sum_hessian":[0.0,0.0,0.0,0.0,0.0,0.0,0.0],
"tree_param":{"num_deleted":"0","num_feature":"16","num_nodes":"7","size_leaf_vector":"0"}
},
{
"base_weights":[0.0,0.0,0.0,0.0,0.0,0.0,0.0],
"categories":[],"categories_nodes":[],"categories_segments":[],"categories_sizes":[],
"default_left":[true,true,true,false,false,false,false],
"id":4,
"left_children":[1,3,5,-1,-1,-1,-1],
"loss_changes":[0.0,0.0,0.0,0.0,0.0,0.0,0.0],
"parents":[2147483647,0,0,1,1,2,2],
"right_children":[2,4,6,-1,-1,-1,-1],
"split_conditions":[2.7088195800781250e+02,4.5654567718505859e+01,6.7876899719238281e+01,-5.6376293301582336e-02,3.2635945826768875e-02,1.5360226854681969e-02,6.9380551576614380e-02],
"split_indices":[11,7,7,0,0,0,0],
"split_type":[0,0,0,0,0,0,0],
"sum_hessian":[0.0,0.0,0.0,0.0,0.0,0.0,0.0],
"tree_param":{"num_deleted":"0","num_feature":"16","num_nodes":"7","size_leaf_vector":"0"}
},
{
"base_weights":[0.0,0.0,0.0,0.0,0.0,0.0,0.0],
"categories":[],"categories_nodes":[],"categories_segments":[],"categories_sizes":[],
"default_left":[true,true,true,false,false,false,false],
"id":5,
"left_children":[1,3,5,-1,-1,-1,-1],
"loss_changes":[0.0,0.0,0.0,0.0,0.0,0.0,0.0],
"parents":[2147483647,0,0,1,1,2,2],
"right_children":[2,4,6,-1,-1,-1,-1],
"split_conditions":[2.7088195800781250e+02,4.5654567718505859e+01,6.7876899719238281e+01,-5.2073746919631958e-02,2.9674593359231949e-02,1.3799780979752541e-02,6.5679222345352173e-02],
"split_indices":[11,7,7,0,0,0,0],
"split_type":[0,0,0,0,0,0,0],
"sum_hessian":[0.0,0.0,0.0,0.0,0.0,0.0,0.0],
"tree_param":{"num_deleted":"0","num_feature":"16","num_nodes":"7","size_leaf_vector":"0"}
},
{
"base_weights":[0.0,0.0,0.0,0.0,0.0,0.0,0.0],
"categories":[],"categories_nodes":[],"categories_segments":[],"categories_sizes":[],
"default_left":[true,true,true,false,false,false,false],
"id":6,
"left_children":[1,3,5,-1,-1,-1,-1],
"loss_changes":[0.0,0.0,0.0,0.0,0.0,0.0,0.0],
"parents":[2147483647,0,0,1,1,2,2],
"right_children":[2,4,6,-1,-1,-1,-1],
"split_conditions":[2.7088195800781250e+02,3.1516593933105469e+01,6.7876899719238281e+01,-4.7647986561059952e-02,3.3341031521558762e-02,1.2405069544911385e-02,6.2508314847946167e-02],
"split_indices":[11,8,7,0,0,0,0],
"split_type":[0,0,0,0,0,0,0],
"sum_hessian":[0.0,0.0,0.0,0.0,0.0,0.0,0.0],
"tree_param":{"num_deleted":"0","num_feature":"16","num_nodes":"7","size_leaf_vector":"0"}
},
{
"base_weights":[0.0,0.0,0.0,0.0,0.0,0.0,0.0],
"categories":[],"categories_nodes":[],"categories_segments":[],"categories_sizes":[],
"default_left":[true,true,true,false,false,false,false],
"id":7,
"left_children":[1,3,5,-1,-1,-1,-1],
"loss_changes":[0.0,0.0,0.0,0.0,0.0,0.0,0.0],
"parents":[2147483647,0,0,1,1,2,2],
"right_children":[2,4,6,-1,-1,-1,-1],
"split_conditions":[2.7088195800781250e+02,4.5654567718505859e+01,6.7876899719238281e+01,-4.5309528708457947e-02,2.7173085138201714e-02,1.1156277731060982e-02,5.9740111231803894e-02],
"split_indices":[11,7,7,0,0,0,0],
"split_type":[0,0,0,0,0,0,0],
"sum_hessian":[0.0,0.0,0.0,0.0,0.0,0.0,0.0],
"tree_param":{"num_deleted":"0","num_feature":"16","num_nodes":"7","size_leaf_vector":"0"}
},
{
"base_weights":[0.0,0.0,0.0,0.0,0.0,0.0,0.0],
"categories":[],"categories_nodes":[],"categories_segments":[],"categories_sizes":[],
"default_left":[true,true,true,false,false,false,false],
"id":8,
"left_children":[1,3,5,-1,-1,-1,-1],
"loss_changes":[0.0,0.0,0.0,0.0,0.0,0.0,0.0],
"parents":[2147483647,0,0,1,1,2,2],
"right_children":[2,4,6,-1,-1,-1,-1],
"split_conditions":[2.8804187011718750e+02,2.7881988525390625e+01,6.7876899719238281e+01,-4.2237509042024612e-02,2.5890683755278587e-02,1.3720649294555187e-02,5.7709854096174240e-02],
"split_indices":[10,8,7,0,0,0,0],
"split_type":[0,0,0,0,0,0,0],
"sum_hessian":[0.0,0.0,0.0,0.0,0.0,0.0,0.0],
"tree_param":{"num_deleted":"0","num_feature":"16","num_nodes":"7","size_leaf_vector":"0"}
},
{
"base_weights":[0.0,0.0,0.0,0.0,0.0,0.0,0.0],
"categories":[],"categories_nodes":[],"categories_segments":[],"categories_sizes":[],
"default_left":[true,true,true,false,false,false,false],
"id":9,
"left_children":[1,3,5,-1,-1,-1,-1],
"loss_changes":[0.0,0.0,0.0,0.0,0.0,0.0,0.0],
"parents":[2147483647,0,0,1,1,2,2],
"right_children":[2,4,6,-1,-1,-1,-1],
"split_conditions":[6.7876899719238281e+01,2.9101552963256836e+01,2.2185578346252441e+00,-4.2707089334726334e-02,1.6297848895192146e-02,5.0831895321607590e-02,5.6462559849023819e-02],
"split_indices":[7,7,4,0,0,0,0],
"split_type":[0,0,0,0,0,0,0],
"sum_hessian":[0.0,0.0,0.0,0.0,0.0,0.0,0.0],
"tree_param":{"num_deleted":"0","num_feature":"16","num_nodes":"7","size_leaf_vector":"0"}
},
{
"base_weights":[0.0,0.0,0.0,0.0,0.0,0.0,0.0],
"categories":[],"categories_nodes":[],"categories_segments":[],"categories_sizes":[],
"default_left":[true,true,true,false,false,false,false],
"id":10,
"left_children":[1,3,5,-1,-1,-1,-1],
"loss_changes":[0.0,0.0,0.0,0.0,0.0,0.0,0.0],
"parents":[2147483647,0,0,1,1,2,2],
"right_children":[2,4,6,-1,-1,-1,-1],
"split_conditions":[2.8804187011718750e+02,2.3741861343383789e+01,1.6749038696289062e+00,-5.5205285549163818e-02,-1.6857141163200140e-03,6.2582246027886868e-03,4.2489062994718552e-02],
"split_indices":[10,9,4,0,0,0,0],
"split_type":[0,0,0,0,0,0,0],
"sum_hessian":[0.0,0.0,0.0,0.0,0.0,0.0,0.0],
"tree_param":{"num_deleted":"0","num_feature":"16","num_nodes":"7","size_leaf_vector":"0"}
},
{
"base_weights":[0.0,0.0,0.0,0.0,0.0,0.0,0.0],
"categories":[],"categories_nodes":[],"categories_segments":[],"categories_sizes":[],
"default_left":[true,true,true,false,false,false,false],
"id":11,
"left_children":[1,3,5,-1,-1,-1,-1],
"loss_changes":[0.0,0.0,0.0,0.0,0.0,0.0,0.0],
"parents":[2147483647,0,0,1,1,2,2],
"right_children":[2,4,6,-1,-1,-1,-1],
"split_conditions":[6.7876899719238281e+01,1.4335937500000000e+02,2.2185578346252441e+00,-2.9628509655594826e-02,3.3915683627128601e-02,4.7969795763492584e-02,5.3203184157609940e-02],
"split_indices":[7,0,4,0,0,0,0],
"split_type":[0,0,0,0,0,0,0],
"sum_hessian":[0.0,0.0,0.0,0.0,0.0,0.0,0.0],
"tree_param":{"num_deleted":"0","num_feature":"16","num_nodes":"7","size_leaf_vector":"0"}
},
{
"base_weights":[0.0,0.0,0.0,0.0,0.0,0.0,0.0],
"categories":[],"categories_nodes":[],"categories_segments":[],"categories_sizes":[],
"default_left":[true,true,true,false,false,false,false],
"id":12,
"left_children":[1,3,5,-1,-1,-1,-1],
"loss_changes":[0.0,0.0,0.0,0.0,0.0,0.0,0.0],
"parents":[2147483647,0,0,1,1,2,2],
"right_children":[2,4,6,-1,-1,-1,-1],
"split_conditions":[3.7199031829833984e+01,1.4335937500000000e+02,2.9385387897491455e+00,-2.8352258726954460e-02,3.0213084071874619e-02,5.1944036036729813e-02,3.6115434020757675e-02],
"split_indices":[8,0,6,0,0,0,0],
"split_type":[0,0,0,0,0,0,0],
"sum_hessian":[0.0,0.0,0.0,0.0,0.0,0.0,0.0],
"tree_param":{"num_deleted":"0","num_feature":"16","num_nodes":"7","size_leaf_vector":"0"}
},
{
"base_weights":[0.0,0.0,0.0,0.0,0.0,0.0,0.0],
"categories":[],"categories_nodes":[],"categories_segments":[],"categories_sizes":[],
"default_left":[true,true,true,false,false,false,false],
"id":13,
"left_children":[1,3,5,-1,-1,-1,-1],
"loss_changes":[0.0,0.0,0.0,0.0,0.0,0.0,0.0],
"parents":[2147483647,0,0,1,1,2,2],
"right_children":[2,4,6,-1,-1,-1,-1],
"split_conditions":[6.7876899719238281e+01,4.2026489257812500e+01,2.2185578346252441e+00,-2.8069278225302696e-02,3.0478125438094139e-02,4.4840384274721146e-02,5.0378315150737762e-02],
"split_indices":[7,7,4,0,0,0,0],
"split_type":[0,0,0,0,0,0,0],
"sum_hessian":[0.0,0.0,0.0,0.0,0.0,0.0,0.0],
"tree_param":{"num_deleted":"0","num_feature":"16","num_nodes":"7","size_leaf_vector":"0"}
},
{
"base_weights":[0.0,0.0,0.0,0.0,0.0,0.0,0.0],
"categories":[],"categories_nodes":[],"categories_segments":[],"categories_sizes":[],
"default_left":[true,true,true,false,false,false,false],
"id":14,
"left_children":[1,3,5,-1,-1,-1,-1],
"loss_changes":[0.0,0.0,0.0,0.0,0.0,0.0,0.0],
"parents":[2147483647,0,0,1,1,2,2],
"right_children":[2,4,6,-1,-1,-1,-1],
"split_conditions":[2.7088195800781250e+02,3.4943325042724609e+01,1.9461007118225098e+00,-4.1887078434228897e-02,6.9191195070743561e-03,4.7666491009294987e-03,3.4271709620952606e-02],
"split_indices":[11,9,4,0,0,0,0],
"split_type":[0,0,0,0,0,0,0],
"sum_hessian":[0.0,0.0,0.0,0.0,0.0,0.0,0.0],
"tree_param":{"num_deleted":"0","num_feature":"16","num_nodes":"7","size_leaf_vector":"0"}
},
{
"base_weights":[0.0,0.0,0.0,0.0,0.0,0.0,0.0],
"categories":[],"categories_nodes":[],"categories_segments":[],"categories_sizes":[],
"default_left":[true,true,true,false,false,false,false],
"id":15,
"left_children":[1,3,5,-1,-1,-1,-1],
"loss_changes":[0.0,0.0,0.0,0.0,0.0,0.0,0.0],
"parents":[2147483647,0,0,1,1,2,2],
"right_children":[2,4,6,-1,-1,-1,-1],
"split_conditions":[3.7199031829833984e+01,1.4335937500000000e+02,2.9385387897491455e+00,-2.4434447288513184e-02,2.6235146448016167e-02,4.7040805220603943e-02,3.1002536416053772e-02],
"split_indices":[8,0,6,0,0,0,0],
"split_type":[0,0,0,0,0,0,0],
"sum_hessian":[0.0,0.0,0.0,0.0,0.0,0.0,0.0],
"tree_param":{"num_deleted":"0","num_feature":"16","num_nodes":"7","size_leaf_vector":"0"}
},
{
"base_weights":[0.0,0.0,0.0,0.0,0.0,0.0,0.0],
"categories":[],"categories_nodes":[],"categories_segments":[],"categories_sizes":[],
"default_left":[true,true,true,false,false,false,false],
"id":16,
"left_children":[1,3,5,-1,-1,-1,-1],
"loss_changes":[0.0,0.0,0.0,0.0,0.0,0.0,0.0],
"parents":[2147483647,0,0,1,1,2,2],
"right_children":[2,4,6,-1,-1,-1,-1],
"split_conditions":[6.7876899719238281e+01,2.5870319366455078e+01,-7.4799901247024536e-01,-3.6761235445737839e-02,1.2297907844185829e-02,4.5752845704555511e-02,4.3385997414588928e-02],
"split_indices":[7,7,1,0,0,0,0],
"split_type":[0,0,0,0,0,0,0],
"sum_hessian":[0.0,0.0,0.0,0.0,0.0,0.0,0.0],
"tree_param":{"num_deleted":"0","num_feature":"16","num_nodes":"7","size_leaf_vector":"0"}
},
{
"base_weights":[0.0,0.0,0.0,0.0,0.0,0.0,0.0],
"categories":[],"categories_nodes":[],"categories_segments":[],"categories_sizes":[],
"default_left":[true,true,true,false,false,false,false],
"id":17,
"left_children":[1,3,5,-1,-1,-1,-1],
"loss_changes":[0.0,0.0,0.0,0.0,0.0,0.0,0.0],
"parents":[2147483647,0,0,1,1,2,2],
"right_children":[2,4,6,-1,-1,-1,-1],
"split_conditions":[6.7876899719238281e+01,2.9101552963256836e+01,1.5803350210189819e+00,-3.1396724283695221e-02,1.3579115271568298e-02,4.5538272708654404e-02,3.9804056286811829e-02],
"split_indices":[7,7,5,0,0,0,0],
"split_type":[0,0,0,0,0,0,0],
"sum_hessian":[0.0,0.0,0.0,0.0,0.0,0.0,0.0],
"tree_param":{"num_deleted":"0","num_feature":"16","num_nodes":"7","size_leaf_vector":"0"}
},
{
"base_weights":[0.0,0.0,0.0,0.0,0.0,0.0,0.0],
"categories":[],"categories_nodes":[],"categories_segments":[],"categories_sizes":[],
"default_left":[true,true,true,false,false,false,false],
"id":18,
"left_children":[1,3,5,-1,-1,-1,-1],
"loss_changes":[0.0,0.0,0.0,0.0,0.0,0.0,0.0],
"parents":[2147483647,0,0,1,1,2,2],
"right_children":[2,4,6,-1,-1,-1,-1],
"split_conditions":[1.4852607727050781e+02,6.1821353912353516e+01,2.3617042541503906e+01,-2.3070354014635086e-02,3.8312360644340515e-02,1.9415320828557014e-02,4.7555334866046906e-02],
"split_indices":[0,7,8,0,0,0,0],
"split_type":[0,0,0,0,0,0,0],
"sum_hessian":[0.0,0.0,0.0,0.0,0.0,0.0,0.0],
"tree_param":{"num_deleted":"0","num_feature":"16","num_nodes":"7","size_leaf_vector":"0"}
},
{
"base_weights":[0.0,0.0,0.0,0.0,0.0,0.0,0.0],
"categories":[],"categories_nodes":[],"categories_segments":[],"categories_sizes":[],
"default_left":[true,true,true,false,false,false,false],
"id":19,
"left_children":[1,3,5,-1,-1,-1,-1],
"loss_changes":[0.0,0.0,0.0,0.0,0.0,0.0,0.0],
"parents":[2147483647,0,0,1,1,2,2],
"right_children":[2,4,6,-1,-1,-1,-1],
"split_conditions":[2.8804187011718750e+02,2.3741861343383789e+01,1.6749038696289062e+00,-4.3844960629940033e-02,4.8914621584117413e-03,2.2709634504280984e-04,2.8604879975318909e-02],
"split_indices":[10,9,4,0,0,0,0],
"split_type":[0,0,0,0,0,0,0],
"sum_hessian":[0.0,0.0,0.0,0.0,0.0,0.0,0.0],
"tree_param":{"num_deleted":"0","num_feature":"16","num_nodes":"7","size_leaf_vector":"0"}
},
{
"base_weights":[0.0,0.0,0.0,0.0,0.0,0.0,0.0],
"categories":[],"categories_nodes":[],"categories_segments":[],"categories_sizes":[],
"default_left":[true,true,true,false,false,false,false],
"id":20,
"left_children":[1,3,5,-1,-1,-1,-1],
"loss_changes":[0.0,0.0,0.0,0.0,0.0,0.0,0.0],
"parents":[2147483647,0,0,1,1,2,2],
"right_children":[2,4,6,-1,-1,-1,-1],
"split_conditions":[3.7199031829833984e+01,1.4335937500000000e+02,2.9385387897491455e+00,-1.9440162926912308e-02,2.1393377333879471e-02,4.0571209043264389e-02,2.3716928437352180e-02],
"split_indices":[8,0,6,0,0,0,0],
"split_type":[0,0,0,0,0,0,0],
"sum_hessian":[0.0,0.0,0.0,0.0,0.0,0.0,0.0],
"tree_param":{"num_deleted":"0","num_feature":"16","num_nodes":"7","size_leaf_vector":"0"}
},
{
"base_weights":[0.0,0.0,0.0,0.0,0.0,0.0,0.0],
"categories":[],"categories_nodes":[],"categories_segments":[],"categories_sizes":[],
"default_left":[true,true,true,false,false,false,false],
"id":21,
"left_children":[1,3,5,-1,-1,-1,-1],
"loss_changes":[0.0,0.0,0.0,0.0,0.0,0.0,0.0],
"parents":[2147483647,0,0,1,1,2,2],
"right_children":[2,4,6,-1,-1,-1,-1],
"split_conditions":[6.7876899719238281e+01,4.8488956451416016e+01,1.5803350210189819e+00,-1.7283549532294273e-02,3.1136246398091316e-02,4.1505590081214905e-02,3.4691851586103439e-02],
"split_indices":[7,7,5,0,0,0,0],
"split_type":[0,0,0,0,0,0,0],
"sum_hessian":[0.0,0.0,0.0,0.0,0.0,0.0,0.0],
"tree_param":{"num_deleted":"0","num_feature":"16","num_nodes":"7","size_leaf_vector":"0"}
},
{
"base_weights":[0.0,0.0,0.0,0.0,0.0,0.0,0.0],
"categories":[],"categories_nodes":[],"categories_segments":[],"categories_sizes":[],
"default_left":[true,true,true,false,false,false,false],
"id":22,
"left_children":[1,3,5,-1,-1,-1,-1],
"loss_changes":[0.0,0.0,0.0,0.0,0.0,0.0,0.0],
"parents":[2147483647,0,0,1,1,2,2],
"right_children":[2,4,6,-1,-1,-1,-1],
"split_conditions":[1.4852607727050781e+02,6.1821353912353516e+01,2.3617042541503906e+01,-1.8651062622666359e-02,3.3264677971601486e-02,1.4687386341392994e-02,4.2060997337102890e-02],
"split_indices":[0,7,8,0,0,0,0],
"split_type":[0,0,0,0,0,0,0],
"sum_hessian":[0.0,0.0,0.0,0.0,0.0,0.0,0.0],
"tree_param":{"num_deleted":"0","num_feature":"16","num_nodes":"7","size_leaf_vector":"0"}
},
{
"base_weights":[0.0,0.0,0.0,0.0,0.0,0.0,0.0],
"categories":[],"categories_nodes":[],"categories_segments":[],"categories_sizes":[],
"default_left":[true,true,true,false,false,false,false],
"id":23,
"left_children":[1,3,5,-1,-1,-1,-1],
"loss_changes":[0.0,0.0,0.0,0.0,0.0,0.0,0.0],
"parents":[2147483647,0,0,1,1,2,2],
"right_children":[2,4,6,-1,-1,-1,-1],
"split_conditions":[3.7199031829833984e+01,1.4335937500000000e+02,2.9385387897491455e+00,-1.6342628747224808e-02,1.8281726166605949e-02,3.6438483744859695e-02,1.9590720534324646e-02],
"split_indices":[8,0,6,0,0,0,0],
"split_type":[0,0,0,0,0,0,0],
"sum_hessian":[0.0,0.0,0.0,0.0,0.0,0.0,0.0],
"tree_param":{"num_deleted":"0","num_feature":"16","num_nodes":"7","size_leaf_vector":"0"}
},
{
"base_weights":[0.0,0.0,0.0,0.0,0.0,0.0,0.0],
"categories":[],"categories_nodes":[],"categories_segments":[],"categories_sizes":[],
"default_left":[true,true,true,false,false,false,false],
"id":24,
"left_children":[1,3,5,-1,-1,-1,-1],
"loss_changes":[0.0,0.0,0.0,0.0,0.0,0.0,0.0],
"parents":[2147483647,0,0,1,1,2,2],
"right_children":[2,4,6,-1,-1,-1,-1],
"split_conditions":[9.1935874938964844e+01,2.6278522491455078e+01,1.6766602993011475e+00,-3.7428203970193863e-02,1.2759846635162830e-02,1.4115820638835430e-02,3.2787907868623734e-02],
"split_indices":[9,9,4,0,0,0,0],
"split_type":[0,0,0,0,0,0,0],
"sum_hessian":[0.0,0.0,0.0,0.0,0.0,0.0,0.0],
"tree_param":{"num_deleted":"0","num_feature":"16","num_nodes":"7","size_leaf_vector":"0"}
},
{
"base_weights":[0.0,0.0,0.0,0.0,0.0,0.0,0.0],
"categories":[],"categories_nodes":[],"categories_segments":[],"categories_sizes":[],
"default_left":[true,true,true,false,false,false,false],
"id":25,
"left_children":[1,3,5,-1,-1,-1,-1],
"loss_changes":[0.0,0.0,0.0,0.0,0.0,0.0,0.0],
"parents":[2147483647,0,0,1,1,2,2],
"right_children":[2,4,6,-1,-1,-1,-1],
"split_conditions":[1.4852607727050781e+02,6.1821353912353516e+01,2.3617042541503906e+01,-1.5825012698769569e-02,3.0030712485313416e-02,1.1486657895147800e-02,3.7888038903474808e-02],
"split_indices":[0,7,8,0,0,0,0],
"split_type":[0,0,0,0,0,0,0],
"sum_hessian":[0.0,0.0,0.0,0.0,0.0,0.0,0.0],
"tree_param":{"num_deleted":"0","num_feature":"16","num_nodes":"7","size_leaf_vector":"0"}
},
{
"base_weights":[0.0,0.0,0.0,0.0,0.0,0.0,0.0],
"categories":[],"categories_nodes":[],"categories_segments":[],"categories_sizes":[],
"default_left":[true,true,true,false,false,false,false],
"id":26,
"left_children":[1,3,5,-1,-1,-1,-1],
"loss_changes":[0.0,0.0,0.0,0.0,0.0,0.0,0.0],
"parents":[2147483647,0,0,1,1,2,2],
"right_children":[2,4,6,-1,-1,-1,-1],
"split_conditions":[9.1935874938964844e+01,2.1901367187500000e+01,1.6766602993011475e+00,-3.9357040077447891e-02,9.6670566126704216e-03,1.2464161030948162e-02,2.9705595225095749e-02],
"split_indices":[9,9,4,0,0,0,0],
"split_type":[0,0,0,0,0,0,0],
"sum_hessian":[0.0,0.0,0.0,0.0,0.0,0.0,0.0],
"tree_param":{"num_deleted":"0","num_feature":"16","num_nodes":"7","size_leaf_vector":"0"}
},
{
"base_weights":[0.0,0.0,0.0,0.0,0.0,0.0,0.0],
"categories":[],"categories_nodes":[],"categories_segments":[],"categories_sizes":[],
"default_left":[true,true,true,false,false,false,false],
"id":27,
"left_children":[1,3,5,-1,-1,-1,-1],
"loss_changes":[0.0,0.0,0.0,0.0,0.0,0.0,0.0],
"parents":[2147483647,0,0,1,1,2,2],
"right_children":[2,4,6,-1,-1,-1,-1],
"split_conditions":[2.5431919097900391e+00,-2.3294806480407715e+00,2.7996575832366943e+00,1.9514039158821106e-02,-1.7089698463678360e-02,1.2041932903230190e-02,2.8654780238866806e-02],
"split_indices":[1,1,1,0,0,0,0],
"split_type":[0,0,0,0,0,0,0],
"sum_hessian":[0.0,0.0,0.0,0.0,0.0,0.0,0.0],
"tree_param":{"num_deleted":"0","num_feature":"16","num_nodes":"7","size_leaf_vector":"0"}
},
{
"base_weights":[0.0,0.0,0.0,0.0,0.0,0.0,0.0],
"categories":[],"categories_nodes":[],"categories_segments":[],"categories_sizes":[],
"default_left":[true,true,true,false,false,false,false],
"id":28,
"left_children":[1,3,5,-1,-1,-1,-1],
"loss_changes":[0.0,0.0,0.0,0.0,0.0,0.0,0.0],
"parents":[2147483647,0,0,1,1,2,2],
"right_children":[2,4,6,-1,-1,-1,-1],
"split_conditions":[1.4852607727050781e+02,6.1821353912353516e+01,2.3617042541503906e+01,-1.3917738571763039e-02,2.6956550776958466e-02,1.0518208146095276e-02,3.4873809665441513e-02],
"split_indices":[0,7,8,0,0,0,0],
"split_type":[0,0,0,0,0,0,0],
"sum_hessian":[0.0,0.0,0.0,0.0,0.0,0.0,0.0],
"tree_param":{"num_deleted":"0","num_feature":"16","num_nodes":"7","size_leaf_vector":"0"}
},
{
"base_weights":[0.0,0.0,0.0,0.0,0.0,0.0,0.0],
"categories":[],"categories_nodes":[],"categories_segments":[],"categories_sizes":[],
"default_left":[true,true,true,false,false,false,false],
"id":29,
"left_children":[1,3,5,-1,-1,-1,-1],
"loss_changes":[0.0,0.0,0.0,0.0,0.0,0.0,0.0],
"parents":[2147483647,0,0,1,1,2,2],
"right_children":[2,4,6,-1,-1,-1,-1],
"split_conditions":[3.7199031829833984e+01,1.5942430496215820e+01,-1.6455934047698975e+00,-1.6864545643329620e-02,1.0582523420453072e-02,3.0392760410904884e-02,1.8377868458628654e-02],
"split_indices":[8,8,1,0,0,0,0],
"split_type":[0,0,0,0,0,0,0],
"sum_hessian":[0.0,0.0,0.0,0.0,0.0,0.0,0.0],
"tree_param":{"num_deleted":"0","num_feature":"16","num_nodes":"7","size_leaf_vector":"0"}
},
{
"base_weights":[0.0,0.0,0.0,0.0,0.0,0.0,0.0],
"categories":[],"categories_nodes":[],"categories_segments":[],"categories_sizes":[],
"default_left":[true,true,true,false,false,false,false],
"id":30,
"left_children":[1,3,5,-1,-1,-1,-1],
"loss_changes":[0.0,0.0,0.0,0.0,0.0,0.0,0.0],
"parents":[2147483647,0,0,1,1,2,2],
"right_children":[2,4,6,-1,-1,-1,-1],
"split_conditions":[2.5431919097900391e+00,-2.3294806480407715e+00,2.8851406574249268e+00,1.7315695062279701e-02,-1.5268917195498943e-02,1.3013902120292187e-02,2.7835406363010406e-02],
"split_indices":[1,1,1,0,0,0,0],
"split_type":[0,0,0,0,0,0,0],
"sum_hessian":[0.0,0.0,0.0,0.0,0.0,0.0,0.0],
"tree_param":{"num_deleted":"0","num_feature":"16","num_nodes":"7","size_leaf_vector":"0"}
},
{
"base_weights":[0.0,0.0,0.0,0.0,0.0,0.0,0.0],
"categories":[],"categories_nodes":[],"categories_segments":[],"categories_sizes":[],
"default_left":[true,true,true,false,false,false,false],
"id":31,
"left_children":[1,3,5,-1,-1,-1,-1],
"loss_changes":[0.0,0.0,0.0,0.0,0.0,0.0,0.0],
"parents":[2147483647,0,0,1,1,2,2],
"right_children":[2,4,6,-1,-1,-1,-1],
"split_conditions":[1.4852607727050781e+02,1.1601977539062500e+02,2.9056546688079834e+00,-1.2167246080935001e-02,2.8507437556982040e-02,1.3770123943686485e-02,2.3377787321805954e-02],
"split_indices":[0,0,4,0,0,0,0],
"split_type":[0,0,0,0,0,0,0],
"sum_hessian":[0.0,0.0,0.0,0.0,0.0,0.0,0.0],
"tree_param":{"num_deleted":"0","num_feature":"16","num_nodes":"7","size_leaf_vector":"0"}
},
{
"base_weights":[0.0,0.0,0.0,0.0,0.0,0.0,0.0],
"categories":[],"categories_nodes":[],"categories_segments":[],"categories_sizes":[],
"default_left":[true,true,true,false,false,false,false],
"id":32,
"left_children":[1,3,5,-1,-1,-1,-1],
"loss_changes":[0.0,0.0,0.0,0.0,0.0,0.0,0.0],
"parents":[2147483647,0,0,1,1,2,2],
"right_children":[2,4,6,-1,-1,-1,-1],
"split_conditions":[9.1935874938964844e+01,1.7524209976196289e+01,5.4346008300781250e+02,-4.1640449315309525e-02,6.8112760782241821e-03,1.4404134824872017e-02,3.1648073345422745e-02],
"split_indices":[9,9,10,0,0,0,0],
"split_type":[0,0,0,0,0,0,0],
"sum_hessian":[0.0,0.0,0.0,0.0,0.0,0.0,0.0],
"tree_param":{"num_deleted":"0","num_feature":"16","num_nodes":"7","size_leaf_vector":"0"}
},
{
"base_weights":[0.0,0.0,0.0,0.0,0.0,0.0,0.0],
"categories":[],"categories_nodes":[],"categories_segments":[],"categories_sizes":[],
"default_left":[true,true,true,false,false,false,false],
"id":33,
"left_children":[1,3,5,-1,-1,-1,-1],
"loss_changes":[0.0,0.0,0.0,0.0,0.0,0.0,0.0],
"parents":[2147483647,0,0,1,1,2,2],
"right_children":[2,4,6,-1,-1,-1,-1],
"split_conditions":[2.2439928054809570e+00,-2.1157684326171875e+00,1.1398908996582031e+02,1.3802591711282730e-02,-1.7014030367136002e-02,6.1392486095428467e-03,3.3255930989980698e-02],
"split_indices":[1,1,0,0,0,0,0],
"split_type":[0,0,0,0,0,0,0],
"sum_hessian":[0.0,0.0,0.0,0.0,0.0,0.0,0.0],
"tree_param":{"num_deleted":"0","num_feature":"16","num_nodes":"7","size_leaf_vector":"0"}
},
{
"base_weights":[0.0,0.0,0.0,0.0,0.0,0.0,0.0],
"categories":[],"categories_nodes":[],"categories_segments":[],"categories_sizes":[],
"default_left":[true,true,true,false,false,false,false],
"id":34,
"left_children":[1,3,5,-1,-1,-1,-1],
"loss_changes":[0.0,0.0,0.0,0.0,0.0,0.0,0.0],
"parents":[2147483647,0,0,1,1,2,2],
"right_children":[2,4,6,-1,-1,-1,-1],
"split_conditions":[9.1935874938964844e+01,3.0655679702758789e+01,2.2188198566436768e+00,-2.6311336085200310e-02,1.1835001409053802e-02,1.2135917320847511e-02,2.7605537325143814e-02],
"split_indices":[9,9,4,0,0,0,0],
"split_type":[0,0,0,0,0,0,0],
"sum_hessian":[0.0,0.0,0.0,0.0,0.0,0.0,0.0],
"tree_param":{"num_deleted":"0","num_feature":"16","num_nodes":"7","size_leaf_vector":"0"}
},
{
"base_weights":[0.0,0.0,0.0,0.0,0.0,0.0,0.0],
"categories":[],"categories_nodes":[],"categories_segments":[],"categories_sizes":[],
"default_left":[true,true,true,false,false,false,false],
"id":35,
"left_children":[1,3,5,-1,-1,-1,-1],
"loss_changes":[0.0,0.0,0.0,0.0,0.0,0.0,0.0],
"parents":[2147483647,0,0,1,1,2,2],
"right_children":[2,4,6,-1,-1,-1,-1],
"split_conditions":[1.4852607727050781e+02,1.1601977539062500e+02,2.9056546688079834e+00,-1.0708950459957123e-02,2.5299385190010071e-02,1.1354951187968254e-02,2.0884873345494270e-02],
"split_indices":[0,0,4,0,0,0,0],
"split_type":[0,0,0,0,0,0,0],
"sum_hessian":[0.0,0.0,0.0,0.0,0.0,0.0,0.0],
"tree_param":{"num_deleted":"0","num_feature":"16","num_nodes":"7","size_leaf_vector":"0"}
},
{
"base_weights":[0.0,0.0,0.0,0.0,0.0,0.0,0.0],
"categories":[],"categories_nodes":[],"categories_segments":[],"categories_sizes":[],
"default_left":[true,true,true,false,false,false,false],
"id":36,
"left_children":[1,3,5,-1,-1,-1,-1],
"loss_changes":[0.0,0.0,0.0,0.0,0.0,0.0,0.0],
"parents":[2147483647,0,0,1,1,2,2],
"right_children":[2,4,6,-1,-1,-1,-1],
"split_conditions":[2.5431919097900391e+00,-2.6001846790313721e+00,2.7996575832366943e+00,1.8529351800680161e-02,-1.1767450720071793e-02,8.3899823948740959e-03,2.2201217710971832e-02],
"split_indices":[1,1,1,0,0,0,0],
"split_type":[0,0,0,0,0,0,0],
"sum_hessian":[0.0,0.0,0.0,0.0,0.0,0.0,0.0],
"tree_param":{"num_deleted":"0","num_feature":"16","num_nodes":"7","size_leaf_vector":"0"}
},
{
"base_weights":[0.0,0.0,0.0,0.0,0.0,0.0,0.0],
"categories":[],"categories_nodes":[],"categories_segments":[],"categories_sizes":[],
"default_left":[true,true,true,false,false,false,false],
"id":37,
"left_children":[1,3,5,-1,-1,-1,-1],
"loss_changes":[0.0,0.0,0.0,0.0,0.0,0.0,0.0],
"parents":[2147483647,0,0,1,1,2,2],
"right_children":[2,4,6,-1,-1,-1,-1],
"split_conditions":[9.1935874938964844e+01,1.7524209976196289e+01,5.4346008300781250e+02,-3.7452898919582367e-02,5.8474158868193626e-03,1.1490830220282078e-02,2.8381172567605972e-02],
"split_indices":[9,9,10,0,0,0,0],
"split_type":[0,0,0,0,0,0,0],
"sum_hessian":[0.0,0.0,0.0,0.0,0.0,0.0,0.0],
"tree_param":{"num_deleted":"0","num_feature":"16","num_nodes":"7","size_leaf_vector":"0"}
},
{
"base_weights":[0.0,0.0,0.0,0.0,0.0,0.0,0.0],
"categories":[],"categories_nodes":[],"categories_segments":[],"categories_sizes":[],
"default_left":[true,true,true,false,false,false,false],
"id":38,
"left_children":[1,3,5,-1,-1,-1,-1],
"loss_changes":[0.0,0.0,0.0,0.0,0.0,0.0,0.0],
"parents":[2147483647,0,0,1,1,2,2],
"right_children":[2,4,6,-1,-1,-1,-1],
"split_conditions":[3.7199031829833984e+01,1.7713811874389648e+01,1.6455934047698975e+00,-1.3219227083027363e-02,1.0720680467784405e-02,1.4166989363729954e-02,2.5541938841342926e-02],
"split_indices":[8,8,1,0,0,0,0],
"split_type":[0,0,0,0,0,0,0],
"sum_hessian":[0.0,0.0,0.0,0.0,0.0,0.0,0.0],
"tree_param":{"num_deleted":"0","num_feature":"16","num_nodes":"7","size_leaf_vector":"0"}
},
{
"base_weights":[0.0,0.0,0.0,0.0,0.0,0.0,0.0],
"categories":[],"categories_nodes":[],"categories_segments":[],"categories_sizes":[],
"default_left":[true,true,true,false,false,false,false],
"id":39,
"left_children":[1,3,5,-1,-1,-1,-1],
"loss_changes":[0.0,0.0,0.0,0.0,0.0,0.0,0.0],
"parents":[2147483647,0,0,1,1,2,2],
"right_children":[2,4,6,-1,-1,-1,-1],
"split_conditions":[1.4852607727050781e+02,1.1601977539062500e+02,2.9056546688079834e+00,-9.7839133813977242e-03,2.2972827777266502e-02,1.0045175440609455e-02,1.9274814054369926e-02],
"split_indices":[0,0,4,0,0,0,0],
"split_type":[0,0,0,0,0,0,0],
"sum_hessian":[0.0,0.0,0.0,0.0,0.0,0.0,0.0],
"tree_param":{"num_deleted":"0","num_feature":"16","num_nodes":"7","size_leaf_vector":"0"}
},
{
"base_weights":[0.0,0.0,0.0,0.0,0.0],
"categories":[],"categories_nodes":[],"categories_segments":[],"categories_sizes":[],
"default_left":[true,false,true,false,false],
"id":40,
"left_children":[1,-1,3,-1,-1],
"loss_changes":[0.0,0.0,0.0,0.0,0.0],
"parents":[2147483647,0,0,2,2],
"right_children":[2,-1,4,-1,-1],
"split_conditions":[-2.8423933982849121e+00,2.2340703755617142e-02,1.7168332338333130e+00,-1.1763229034841061e-02,1.1187283322215080e-02],
"split_indices":[1,0,1,0,0],
"split_type":[0,0,0,0,0],
"sum_hessian":[0.0,0.0,0.0,0.0,0.0],
"tree_param":{"num_deleted":"0","num_feature":"16","num_nodes":"5","size_leaf_vector":"0"}
},
{
"base_weights":[0.0,0.0,0.0,0.0,0.0,0.0,0.0],
"categories":[],"categories_nodes":[],"categories_segments":[],"categories_sizes":[],
"default_left":[true,true,true,false,false,false,false],
"id":41,
"left_children":[1,3,5,-1,-1,-1,-1],
"loss_changes":[0.0,0.0,0.0,0.0,0.0,0.0,0.0],
"parents":[2147483647,0,0,1,1,2,2],
"right_children":[2,4,6,-1,-1,-1,-1],
"split_conditions":[9.1935874938964844e+01,2.6278522491455078e+01,2.2975659370422363e+00,-2.5902725756168365e-02,8.4676593542098999e-03,2.0239518955349922e-02,1.2098612263798714e-02],
"split_indices":[9,9,6,0,0,0,0],
"split_type":[0,0,0,0,0,0,0],
"sum_hessian":[0.0,0.0,0.0,0.0,0.0,0.0,0.0],
"tree_param":{"num_deleted":"0","num_feature":"16","num_nodes":"7","size_leaf_vector":"0"}
},
{
"base_weights":[0.0,0.0,0.0,0.0,0.0,0.0,0.0],
"categories":[],"categories_nodes":[],"categories_segments":[],"categories_sizes":[],
"default_left":[true,true,true,false,false,false,false],
"id":42,
"left_children":[1,3,5,-1,-1,-1,-1],
"loss_changes":[0.0,0.0,0.0,0.0,0.0,0.0,0.0],
"parents":[2147483647,0,0,1,1,2,2],
"right_children":[2,4,6,-1,-1,-1,-1],
"split_conditions":[1.4852607727050781e+02,1.1601977539062500e+02,7.7045173645019531e+01,-8.9019350707530975e-03,2.0730694755911827e-02,1.7802815884351730e-02,7.8042601235210896e-03],
"split_indices":[0,0,15,0,0,0,0],
"split_type":[0,0,0,0,0,0,0],
"sum_hessian":[0.0,0.0,0.0,0.0,0.0,0.0,0.0],
"tree_param":{"num_deleted":"0","num_feature":"16","num_nodes":"7","size_leaf_vector":"0"}
},
{
"base_weights":[0.0,0.0,0.0,0.0,0.0,0.0,0.0],
"categories":[],"categories_nodes":[],"categories_segments":[],"categories_sizes":[],
"default_left":[true,true,true,false,false,false,false],
"id":43,
"left_children":[1,3,5,-1,-1,-1,-1],
"loss_changes":[0.0,0.0,0.0,0.0,0.0,0.0,0.0],
"parents":[2147483647,0,0,1,1,2,2],
"right_children":[2,4,6,-1,-1,-1,-1],
"split_conditions":[6.7876899719238281e+01,2.2639085769653320e+01,-1.4961452782154083e-01,-2.5011749938130379e-02,9.1411992907524109e-03,2.6152698323130608e-02,2.1937442943453789e-02],
"split_indices":[7,7,3,0,0,0,0],
"split_type":[0,0,0,0,0,0,0],
"sum_hessian":[0.0,0.0,0.0,0.0,0.0,0.0,0.0],
"tree_param":{"num_deleted":"0","num_feature":"16","num_nodes":"7","size_leaf_vector":"0"}
},
{
"base_weights":[0.0,0.0,0.0,0.0,0.0,0.0,0.0],
"categories":[],"categories_nodes":[],"categories_segments":[],"categories_sizes":[],
"default_left":[true,true,true,false,false,false,false],
"id":44,
"left_children":[1,3,5,-1,-1,-1,-1],
"loss_changes":[0.0,0.0,0.0,0.0,0.0,0.0,0.0],
"parents":[2147483647,0,0,1,1,2,2],
"right_children":[2,4,6,-1,-1,-1,-1],
"split_conditions":[2.2439928054809570e+00,-1.8593124151229858e+00,1.1398908996582031e+02,1.0089197196066380e-02,-1.4567023143172264e-02,5.8531840331852436e-03,2.4408042430877686e-02],
"split_indices":[1,1,0,0,0,0,0],
"split_type":[0,0,0,0,0,0,0],
"sum_hessian":[0.0,0.0,0.0,0.0,0.0,0.0,0.0],
"tree_param":{"num_deleted":"0","num_feature":"16","num_nodes":"7","size_leaf_vector":"0"}
},
{
"base_weights":[0.0,0.0,0.0,0.0,0.0],
"categories":[],"categories_nodes":[],"categories_segments":[],"categories_sizes":[],
"default_left":[true,false,true,false,false],
"id":45,
"left_children":[1,-1,3,-1,-1],
"loss_changes":[0.0,0.0,0.0,0.0,0.0],
"parents":[2147483647,0,0,2,2],
"right_children":[2,-1,4,-1,-1],
"split_conditions":[-2.8423933982849121e+00,1.9096966832876205e-02,1.7168332338333130e+00,-1.0030963458120823e-02,9.5158442854881287e-03],
"split_indices":[1,0,1,0,0],
"split_type":[0,0,0,0,0],
"sum_hessian":[0.0,0.0,0.0,0.0,0.0],
"tree_param":{"num_deleted":"0","num_feature":"16","num_nodes":"5","size_leaf_vector":"0"}
},
{
"base_weights":[0.0,0.0,0.0,0.0,0.0,0.0,0.0],
"categories":[],"categories_nodes":[],"categories_segments":[],"categories_sizes":[],
"default_left":[true,true,true,false,false,false,false],
"id":46,
"left_children":[1,3,5,-1,-1,-1,-1],
"loss_changes":[0.0,0.0,0.0,0.0,0.0,0.0,0.0],
"parents":[2147483647,0,0,1,1,2,2],
"right_children":[2,4,6,-1,-1,-1,-1],
"split_conditions":[9.1935874938964844e+01,1.7524209976196289e+01,5.4346008300781250e+02,-3.2845865935087204e-02,5.0485781393945217e-03,8.4624430164694786e-03,2.4385755881667137e-02],
"split_indices":[9,9,10,0,0,0,0],
"split_type":[0,0,0,0,0,0,0],
"sum_hessian":[0.0,0.0,0.0,0.0,0.0,0.0,0.0],
"tree_param":{"num_deleted":"0","num_feature":"16","num_nodes":"7","size_leaf_vector":"0"}
},
{
"base_weights":[0.0,0.0,0.0,0.0,0.0,0.0,0.0],
"categories":[],"categories_nodes":[],"categories_segments":[],"categories_sizes":[],
"default_left":[true,true,true,false,false,false,false],
"id":47,
"left_children":[1,3,5,-1,-1,-1,-1],
"loss_changes":[0.0,0.0,0.0,0.0,0.0,0.0,0.0],
"parents":[2147483647,0,0,1,1,2,2],
"right_children":[2,4,6,-1,-1,-1,-1],
"split_conditions":[1.4852607727050781e+02,1.0951856231689453e+02,2.9056546688079834e+00,-8.9681129902601242e-03,1.5477820299565792e-02,7.3685394600033760e-03,1.6475241631269455e-02],
"split_indices":[0,0,4,0,0,0,0],
"split_type":[0,0,0,0,0,0,0],
"sum_hessian":[0.0,0.0,0.0,0.0,0.0,0.0,0.0],
"tree_param":{"num_deleted":"0","num_feature":"16","num_nodes":"7","size_leaf_vector":"0"}
},
{
"base_weights":[0.0,0.0,0.0,0.0,0.0,0.0,0.0],
"categories":[],"categories_nodes":[],"categories_segments":[],"categories_sizes":[],
"default_left":[true,true,true,false,false,false,false],
"id":48,
"left_children":[1,3,5,-1,-1,-1,-1],
"loss_changes":[0.0,0.0,0.0,0.0,0.0,0.0,0.0],
"parents":[2147483647,0,0,1,1,2,2],
"right_children":[2,4,6,-1,-1,-1,-1],
"split_conditions":[-2.5431940555572510e+00,2.7780118942260742e+01,1.7880709171295166e+00,4.1381432674825191e-03,2.7345841750502586e-02,-1.1452942155301571e-02,8.8856816291809082e-03],
"split_indices":[1,8,1,0,0,0,0],
"split_type":[0,0,0,0,0,0,0],
"sum_hessian":[0.0,0.0,0.0,0.0,0.0,0.0,0.0],
"tree_param":{"num_deleted":"0","num_feature":"16","num_nodes":"7","size_leaf_vector":"0"}
},
{
"base_weights":[0.0,0.0,0.0,0.0,0.0,0.0,0.0],
"categories":[],"categories_nodes":[],"categories_segments":[],"categories_sizes":[],
"default_left":[true,true,true,false,false,false,false],
"id":49,
"left_children":[1,3,5,-1,-1,-1,-1],
"loss_changes":[0.0,0.0,0.0,0.0,0.0,0.0,0.0],
"parents":[2147483647,0,0,1,1,2,2],
"right_children":[2,4,6,-1,-1,-1,-1],
"split_conditions":[6.7876899719238281e+01,1.9407852172851562e+01,-1.4961452782154083e-01,-2.6192829012870789e-02,6.8819476291537285e-03,2.3484183475375175e-02,1.9146112725138664e-02],
"split_indices":[7,7,3,0,0,0,0],
"split_type":[0,0,0,0,0,0,0],
"sum_hessian":[0.0,0.0,0.0,0.0,0.0,0.0,0.0],
"tree_param":{"num_deleted":"0","num_feature":"16","num_nodes":"7","size_leaf_vector":"0"}
},
{
"base_weights":[0.0,0.0,0.0,0.0,0.0,0.0,0.0],
"categories":[],"categories_nodes":[],"categories_segments":[],"categories_sizes":[],
"default_left":[true,true,true,false,false,false,false],
"id":50,
"left_children":[1,3,5,-1,-1,-1,-1],
"loss_changes":[0.0,0.0,0.0,0.0,0.0,0.0,0.0],
"parents":[2147483647,0,0,1,1,2,2],
"right_children":[2,4,6,-1,-1,-1,-1],
"split_conditions":[3.7023301124572754e+00,9.1935874938964844e+01,2.1845025634765625e+02,-7.1819345466792583e-03,1.1779666878283024e-02,6.0229301452636719e-03,2.1044597029685974e-02],
"split_indices":[6,9,11,0,0,0,0],
"split_type":[0,0,0,0,0,0,0],
"sum_hessian":[0.0,0.0,0.0,0.0,0.0,0.0,0.0],
"tree_param":{"num_deleted":"0","num_feature":"16","num_nodes":"7","size_leaf_vector":"0"}
},
{
"base_weights":[0.0,0.0,0.0,0.0,0.0,0.0,0.0],
"categories":[],"categories_nodes":[],"categories_segments":[],"categories_sizes":[],
"default_left":[true,true,true,false,false,false,false],
"id":51,
"left_children":[1,3,5,-1,-1,-1,-1],
"loss_changes":[0.0,0.0,0.0,0.0,0.0,0.0,0.0],
"parents":[2147483647,0,0,1,1,2,2],
"right_children":[2,4,6,-1,-1,-1,-1],
"split_conditions":[1.4852607727050781e+02,1.2252098846435547e+02,7.7045173645019531e+01,-6.7278034985065460e-03,2.1442171186208725e-02,1.5057082287967205e-02,5.5503668263554573e-03],
"split_indices":[0,0,15,0,0,0,0],
"split_type":[0,0,0,0,0,0,0],
"sum_hessian":[0.0,0.0,0.0,0.0,0.0,0.0,0.0],
"tree_param":{"num_deleted":"0","num_feature":"16","num_nodes":"7","size_leaf_vector":"0"}
},
{
"base_weights":[0.0,0.0,0.0,0.0,0.0,0.0,0.0],
"categories":[],"categories_nodes":[],"categories_segments":[],"categories_sizes":[],
"default_left":[true,true,true,false,false,false,false],
"id":52,
"left_children":[1,3,5,-1,-1,-1,-1],
"loss_changes":[0.0,0.0,0.0,0.0,0.0,0.0,0.0],
"parents":[2147483647,0,0,1,1,2,2],
"right_children":[2,4,6,-1,-1,-1,-1],
"split_conditions":[2.5431919097900391e+00,-1.7880728244781494e+00,2.8851406574249268e+00,8.4582185372710228e-03,-1.0609915480017662e-02,5.2576558664441109e-03,1.7324339598417282e-02],
"split_indices":[1,1,1,0,0,0,0],
"split_type":[0,0,0,0,0,0,0],
"sum_hessian":[0.0,0.0,0.0,0.0,0.0,0.0,0.0],
"tree_param":{"num_deleted":"0","num_feature":"16","num_nodes":"7","size_leaf_vector":"0"}
},
{
"base_weights":[0.0,0.0,0.0,0.0,0.0,0.0,0.0],
"categories":[],"categories_nodes":[],"categories_segments":[],"categories_sizes":[],
"default_left":[true,true,true,false,false,false,false],
"id":53,
"left_children":[1,3,5,-1,-1,-1,-1],
"loss_changes":[0.0,0.0,0.0,0.0,0.0,0.0,0.0],
"parents":[2147483647,0,0,1,1,2,2],
"right_children":[2,4,6,-1,-1,-1,-1],
"split_conditions":[3.7023301124572754e+00,6.7876899719238281e+01,2.1845025634765625e+02,-5.7962150312960148e-03,1.8967909738421440e-02,5.8806301094591618e-03,1.8587971106171608e-02],
"split_indices":[6,7,11,0,0,0,0],
"split_type":[0,0,0,0,0,0,0],
"sum_hessian":[0.0,0.0,0.0,0.0,0.0,0.0,0.0],
"tree_param":{"num_deleted":"0","num_feature":"16","num_nodes":"7","size_leaf_vector":"0"}
},
{
"base_weights":[0.0,0.0,0.0,0.0,0.0,0.0,0.0],
"categories":[],"categories_nodes":[],"categories_segments":[],"categories_sizes":[],
"default_left":[true,true,true,false,false,false,false],
"id":54,
"left_children":[1,3,5,-1,-1,-1,-1],
"loss_changes":[0.0,0.0,0.0,0.0,0.0,0.0,0.0],
"parents":[2147483647,0,0,1,1,2,2],
"right_children":[2,4,6,-1,-1,-1,-1],
"split_conditions":[1.4852607727050781e+02,1.0951856231689453e+02,1.8197839260101318e+00,-7.5544179417192936e-03,1.3295932672917843e-02,1.6870740801095963e-02,4.4922749511897564e-03],
"split_indices":[0,0,5,0,0,0,0],
"split_type":[0,0,0,0,0,0,0],
"sum_hessian":[0.0,0.0,0.0,0.0,0.0,0.0,0.0],
"tree_param":{"num_deleted":"0","num_feature":"16","num_nodes":"7","size_leaf_vector":"0"}
},
{
"base_weights":[0.0,0.0,0.0,0.0,0.0,0.0,0.0],
"categories":[],"categories_nodes":[],"categories_segments":[],"categories_sizes":[],
"default_left":[true,true,true,false,false,false,false],
"id":55,
"left_children":[1,3,5,-1,-1,-1,-1],
"loss_changes":[0.0,0.0,0.0,0.0,0.0,0.0,0.0],
"parents":[2147483647,0,0,1,1,2,2],
"right_children":[2,4,6,-1,-1,-1,-1],
"split_conditions":[3.7199031829833984e+01,1.2399668693542480e+01,7.9735809326171875e+01,-1.2795340269804001e-02,6.0700783506035805e-03,1.7549488693475723e-02,7.0245256647467613e-03],
"split_indices":[8,8,14,0,0,0,0],
"split_type":[0,0,0,0,0,0,0],
"sum_hessian":[0.0,0.0,0.0,0.0,0.0,0.0,0.0],
"tree_param":{"num_deleted":"0","num_feature":"16","num_nodes":"7","size_leaf_vector":"0"}
},
{
"base_weights":[0.0,0.0,0.0,0.0,0.0,0.0,0.0],
"categories":[],"categories_nodes":[],"categories_segments":[],"categories_sizes":[],
"default_left":[true,true,true,false,false,false,false],
"id":56,
"left_children":[1,3,5,-1,-1,-1,-1],
"loss_changes":[0.0,0.0,0.0,0.0,0.0,0.0,0.0],
"parents":[2147483647,0,0,1,1,2,2],
"right_children":[2,4,6,-1,-1,-1,-1],
"split_conditions":[-2.5431940555572510e+00,2.7780118942260742e+01,1.5173670053482056e+00,3.7161945365369320e-03,2.3066541180014610e-02,-1.0316045023500919e-02,6.9474438205361366e-03],
"split_indices":[1,8,1,0,0,0,0],
"split_type":[0,0,0,0,0,0,0],
"sum_hessian":[0.0,0.0,0.0,0.0,0.0,0.0,0.0],
"tree_param":{"num_deleted":"0","num_feature":"16","num_nodes":"7","size_leaf_vector":"0"}
},
{
"base_weights":[0.0,0.0,0.0,0.0,0.0],
"categories":[],"categories_nodes":[],"categories_segments":[],"categories_sizes":[],
"default_left":[true,true,false,false,false],
"id":57,
"left_children":[1,3,-1,-1,-1],
"loss_changes":[0.0,0.0,0.0,0.0,0.0],
"parents":[2147483647,0,0,1,1],
"right_children":[2,4,-1,-1,-1],
"split_conditions":[4.2305240631103516e+00,9.1935874938964844e+01,1.9099492579698563e-02,-5.0382618792355061e-03,1.0699640959501266e-02],
"split_indices":[6,9,0,0,0],
"split_type":[0,0,0,0,0],
"sum_hessian":[0.0,0.0,0.0,0.0,0.0],
"tree_param":{"num_deleted":"0","num_feature":"16","num_nodes":"5","size_leaf_vector":"0"}
},
{
"base_weights":[0.0,0.0,0.0,0.0,0.0],
"categories":[],"categories_nodes":[],"categories_segments":[],"categories_sizes":[],
"default_left":[true,true,false,false,false],
"id":58,
"left_children":[1,3,-1,-1,-1],
"loss_changes":[0.0,0.0,0.0,0.0,0.0],
"parents":[2147483647,0,0,1,1],
"right_children":[2,4,-1,-1,-1],
"split_conditions":[3.3020849227905273e+00,6.7876899719238281e+01,1.8510783091187477e-02,-4.1622607968747616e-03,1.6463045030832291e-02],
"split_indices":[4,7,0,0,0],
"split_type":[0,0,0,0,0],
"sum_hessian":[0.0,0.0,0.0,0.0,0.0],
"tree_param":{"num_deleted":"0","num_feature":"16","num_nodes":"5","size_leaf_vector":"0"}
},
{
"base_weights":[0.0,0.0,0.0,0.0,0.0,0.0,0.0],
"categories":[],"categories_nodes":[],"categories_segments":[],"categories_sizes":[],
"default_left":[true,true,true,false,false,false,false],
"id":59,
"left_children":[1,3,5,-1,-1,-1,-1],
"loss_changes":[0.0,0.0,0.0,0.0,0.0,0.0,0.0],
"parents":[2147483647,0,0,1,1,2,2],
"right_children":[2,4,6,-1,-1,-1,-1],
"split_conditions":[-1.9447957277297974e+00,2.7780073165893555e+01,1.6883389949798584e+00,2.2701106499880552e-03,1.7821444198489189e-02,-1.2323664501309395e-02,6.8447599187493324e-03],
"split_indices":[1,8,1,0,0,0,0],
"split_type":[0,0,0,0,0,0,0],
"sum_hessian":[0.0,0.0,0.0,0.0,0.0,0.0,0.0],
"tree_param":{"num_deleted":"0","num_feature":"16","num_nodes":"7","size_leaf_vector":"0"}
},
{
"base_weights":[0.0,0.0,0.0,0.0,0.0,0.0,0.0],
"categories":[],"categories_nodes":[],"categories_segments":[],"categories_sizes":[],
"default_left":[true,true,true,false,false,false,false],
"id":60,
"left_children":[1,3,5,-1,-1,-1,-1],
"loss_changes":[0.0,0.0,0.0,0.0,0.0,0.0,0.0],
"parents":[2147483647,0,0,1,1,2,2],
"right_children":[2,4,6,-1,-1,-1,-1],
"split_conditions":[1.4852607727050781e+02,1.0951856231689453e+02,7.7045173645019531e+01,-6.9460547529160976e-03,1.2211102992296219e-02,1.2749289162456989e-02,4.0885941125452518e-03],
"split_indices":[0,0,15,0,0,0,0],
"split_type":[0,0,0,0,0,0,0],
"sum_hessian":[0.0,0.0,0.0,0.0,0.0,0.0,0.0],
"tree_param":{"num_deleted":"0","num_feature":"16","num_nodes":"7","size_leaf_vector":"0"}
},
{
"base_weights":[0.0,0.0,0.0,0.0,0.0,0.0,0.0],
"categories":[],"categories_nodes":[],"categories_segments":[],"categories_sizes":[],
"default_left":[true,true,true,false,false,false,false],
"id":61,
"left_children":[1,3,5,-1,-1,-1,-1],
"loss_changes":[0.0,0.0,0.0,0.0,0.0,0.0,0.0],
"parents":[2147483647,0,0,1,1,2,2],
"right_children":[2,4,6,-1,-1,-1,-1],
"split_conditions":[3.7023301124572754e+00,9.1935874938964844e+01,2.1845025634765625e+02,-5.5478536523878574e-03,9.3484455719590187e-03,5.9208781458437443e-03,1.5327090397477150e-02],
"split_indices":[6,9,11,0,0,0,0],
"split_type":[0,0,0,0,0,0,0],
"sum_hessian":[0.0,0.0,0.0,0.0,0.0,0.0,0.0],
"tree_param":{"num_deleted":"0","num_feature":"16","num_nodes":"7","size_leaf_vector":"0"}
},
{
"base_weights":[0.0,0.0,0.0,0.0,0.0],
"categories":[],"categories_nodes":[],"categories_segments":[],"categories_sizes":[],
"default_left":[true,true,false,false,false],
"id":62,
"left_children":[1,3,-1,-1,-1],
"loss_changes":[0.0,0.0,0.0,0.0,0.0],
"parents":[2147483647,0,0,1,1],
"right_children":[2,4,-1,-1,-1],
"split_conditions":[2.8423912525177002e+00,-1.7168347835540771e+00,1.3557239435613155e-02,6.6630868241190910e-03,-7.0109642110764980e-03],
"split_indices":[1,1,0,0,0],
"split_type":[0,0,0,0,0],
"sum_hessian":[0.0,0.0,0.0,0.0,0.0],
"tree_param":{"num_deleted":"0","num_feature":"16","num_nodes":"5","size_leaf_vector":"0"}
},
{
"base_weights":[0.0,0.0,0.0,0.0,0.0,0.0,0.0],
"categories":[],"categories_nodes":[],"categories_segments":[],"categories_sizes":[],
"default_left":[true,true,true,false,false,false,false],
"id":63,
"left_children":[1,3,5,-1,-1,-1,-1],
"loss_changes":[0.0,0.0,0.0,0.0,0.0,0.0,0.0],
"parents":[2147483647,0,0,1,1,2,2],
"right_children":[2,4,6,-1,-1,-1,-1],
"split_conditions":[1.6455941200256348e+00,-1.3179018497467041e+00,2.0727443695068359e+01,6.0040126554667950e-03,-1.0814602486789227e-02,-1.9060171907767653e-03,2.4359598755836487e-02],
"split_indices":[2,2,8,0,0,0,0],
"split_type":[0,0,0,0,0,0,0],
"sum_hessian":[0.0,0.0,0.0,0.0,0.0,0.0,0.0],
"tree_param":{"num_deleted":"0","num_feature":"16","num_nodes":"7","size_leaf_vector":"0"}
},
{
"base_weights":[0.0,0.0,0.0,0.0,0.0],
"categories":[],"categories_nodes":[],"categories_segments":[],"categories_sizes":[],
"default_left":[true,true,false,false,false],
"id":64,
"left_children":[1,3,-1,-1,-1],
"loss_changes":[0.0,0.0,0.0,0.0,0.0],
"parents":[2147483647,0,0,1,1],
"right_children":[2,4,-1,-1,-1],
"split_conditions":[5.0827661132812500e+02,1.9632209777832031e+01,1.3882268220186234e-02,-2.7285542339086533e-02,5.4332604631781578e-03],
"split_indices":[10,9,0,0,0],
"split_type":[0,0,0,0,0],
"sum_hessian":[0.0,0.0,0.0,0.0,0.0],
"tree_param":{"num_deleted":"0","num_feature":"16","num_nodes":"5","size_leaf_vector":"0"}
},
{
"base_weights":[0.0,0.0,0.0,0.0,0.0],
"categories":[],"categories_nodes":[],"categories_segments":[],"categories_sizes":[],
"default_left":[true,true,false,false,false],
"id":65,
"left_children":[1,3,-1,-1,-1],
"loss_changes":[0.0,0.0,0.0,0.0,0.0],
"parents":[2147483647,0,0,1,1],
"right_children":[2,4,-1,-1,-1],
"split_conditions":[4.2305240631103516e+00,5.0827661132812500e+02,1.6573907807469368e-02,-3.3903988078236580e-03,1.3006409630179405e-02],
"split_indices":[6,10,0,0,0],
"split_type":[0,0,0,0,0],
"sum_hessian":[0.0,0.0,0.0,0.0,0.0],
"tree_param":{"num_deleted":"0","num_feature":"16","num_nodes":"5","size_leaf_vector":"0"}
},
{
"base_weights":[0.0,0.0,0.0,0.0,0.0],
"categories":[],"categories_nodes":[],"categories_segments":[],"categories_sizes":[],
"default_left":[true,false,true,false,false],
"id":66,
"left_children":[1,-1,3,-1,-1],
"loss_changes":[0.0,0.0,0.0,0.0,0.0],
"parents":[2147483647,0,0,2,2],
"right_children":[2,-1,4,-1,-1],
"split_conditions":[8.6131334304809570e-01,-1.3717215508222580e-02,1.9230712890625000e+01,-6.6232867538928986e-03,1.1828547343611717e-02],
"split_indices":[4,0,8,0,0],
"split_type":[0,0,0,0,0],
"sum_hessian":[0.0,0.0,0.0,0.0,0.0],
"tree_param":{"num_deleted":"0","num_feature":"16","num_nodes":"5","size_leaf_vector":"0"}
},
{
"base_weights":[0.0,0.0,0.0,0.0,0.0],
"categories":[],"categories_nodes":[],"categories_segments":[],"categories_sizes":[],
"default_left":[true,true,false,false,false],
"id":67,
"left_children":[1,3,-1,-1,-1],
"loss_changes":[0.0,0.0,0.0,0.0,0.0],
"parents":[2147483647,0,0,1,1],
"right_children":[2,4,-1,-1,-1],
"split_conditions":[3.3020849227905273e+00,1.6455886363983154e+00,1.6182247549295425e-02,-4.1549443267285824e-03,5.8824168518185616e-03],
"split_indices":[4,2,0,0,0],
"split_type":[0,0,0,0,0],
"sum_hessian":[0.0,0.0,0.0,0.0,0.0],
"tree_param":{"num_deleted":"0","num_feature":"16","num_nodes":"5","size_leaf_vector":"0"}
},
{
"base_weights":[0.0,0.0,0.0,0.0,0.0,0.0,0.0],
"categories":[],"categories_nodes":[],"categories_segments":[],"categories_sizes":[],
"default_left":[true,true,true,false,false,false,false],
"id":68,
"left_children":[1,3,5,-1,-1,-1,-1],
"loss_changes":[0.0,0.0,0.0,0.0,0.0,0.0,0.0],
"parents":[2147483647,0,0,1,1,2,2],
"right_children":[2,4,6,-1,-1,-1,-1],
"split_conditions":[3.7023301124572754e+00,2.8220033645629883e+00,4.0544610023498535e+00,4.4563063420355320e-03,-6.2279882840812206e-03,4.3592699803411961e-03,1.4099330641329288e-02],
"split_indices":[6,6,6,0,0,0,0],
"split_type":[0,0,0,0,0,0,0],
"sum_hessian":[0.0,0.0,0.0,0.0,0.0,0.0,0.0],
"tree_param":{"num_deleted":"0","num_feature":"16","num_nodes":"7","size_leaf_vector":"0"}
},
{
"base_weights":[0.0,0.0,0.0,0.0,0.0,0.0,0.0],
"categories":[],"categories_nodes":[],"categories_segments":[],"categories_sizes":[],
"default_left":[true,true,true,false,false,false,false],
"id":69,
"left_children":[1,3,5,-1,-1,-1,-1],
"loss_changes":[0.0,0.0,0.0,0.0,0.0,0.0,0.0],
"parents":[2147483647,0,0,1,1,2,2],
"right_children":[2,4,6,-1,-1,-1,-1],
"split_conditions":[-1.9447901248931885e+00,1.0471981763839722e+00,1.4461314678192139e+00,3.1910443212836981e-03,1.6931565478444099e-02,-8.2690203562378883e-03,5.7706385850906372e-03],
"split_indices":[2,3,2,0,0,0,0],
"split_type":[0,0,0,0,0,0,0],
"sum_hessian":[0.0,0.0,0.0,0.0,0.0,0.0,0.0],
"tree_param":{"num_deleted":"0","num_feature":"16","num_nodes":"7","size_leaf_vector":"0"}
},
{
"base_weights":[0.0,0.0,0.0,0.0,0.0],
"categories":[],"categories_nodes":[],"categories_segments":[],"categories_sizes":[],
"default_left":[true,false,true,false,false],
"id":70,
"left_children":[1,-1,3,-1,-1],
"loss_changes":[0.0,0.0,0.0,0.0,0.0],
"parents":[2147483647,0,0,2,2],
"right_children":[2,-1,4,-1,-1],
"split_conditions":[-2.8423933982849121e+00,1.2083958834409714e-02,1.7168332338333130e+00,-6.1483373865485191e-03,5.7354453019797802e-03],
"split_indices":[1,0,1,0,0],
"split_type":[0,0,0,0,0],
"sum_hessian":[0.0,0.0,0.0,0.0,0.0],
"tree_param":{"num_deleted":"0","num_feature":"16","num_nodes":"5","size_leaf_vector":"0"}
},
{
"base_weights":[0.0,0.0,0.0,0.0,0.0,0.0,0.0],
"categories":[],"categories_nodes":[],"categories_segments":[],"categories_sizes":[],
"default_left":[true,true,true,false,false,false,false],
"id":71,
"left_children":[1,3,5,-1,-1,-1,-1],
"loss_changes":[0.0,0.0,0.0,0.0,0.0,0.0,0.0],
"parents":[2147483647,0,0,1,1,2,2],
"right_children":[2,4,6,-1,-1,-1,-1],
"split_conditions":[1.4852607727050781e+02,7.0511291503906250e+01,7.7045173645019531e+01,7.0690526627004147e-03,-1.0035407729446888e-02,1.1320699006319046e-02,2.8390162624418736e-03],
"split_indices":[0,0,15,0,0,0,0],
"split_type":[0,0,0,0,0,0,0],
"sum_hessian":[0.0,0.0,0.0,0.0,0.0,0.0,0.0],
"tree_param":{"num_deleted":"0","num_feature":"16","num_nodes":"7","size_leaf_vector":"0"}
},
{
"base_weights":[0.0,0.0,0.0,0.0,0.0],
"categories":[],"categories_nodes":[],"categories_segments":[],"categories_sizes":[],
"default_left":[true,false,true,false,false],
"id":72,
"left_children":[1,-1,3,-1,-1],
"loss_changes":[0.0,0.0,0.0,0.0,0.0],
"parents":[2147483647,0,0,2,2],
"right_children":[2,-1,4,-1,-1],
"split_conditions":[8.6131334304809570e-01,-1.2553949840366840e-02,1.9230712890625000e+01,-6.0049579478800297e-03,1.0797359049320221e-02],
"split_indices":[4,0,8,0,0],
"split_type":[0,0,0,0,0],
"sum_hessian":[0.0,0.0,0.0,0.0,0.0],
"tree_param":{"num_deleted":"0","num_feature":"16","num_nodes":"5","size_leaf_vector":"0"}
},
{
"base_weights":[0.0,0.0,0.0,0.0,0.0,0.0,0.0],
"categories":[],"categories_nodes":[],"categories_segments":[],"categories_sizes":[],
"default_left":[true,true,true,false,false,false,false],
"id":73,
"left_children":[1,3,5,-1,-1,-1,-1],
"loss_changes":[0.0,0.0,0.0,0.0,0.0,0.0,0.0],
"parents":[2147483647,0,0,1,1,2,2],
"right_children":[2,4,6,-1,-1,-1,-1],
"split_conditions":[2.4390904903411865e+00,2.2172975540161133e+00,2.6155113220214844e+01,-2.1275486797094345e-03,9.4916252419352531e-03,-1.0707071051001549e-02,9.3961842358112335e-03],
"split_indices":[5,4,8,0,0,0,0],
"split_type":[0,0,0,0,0,0,0],
"sum_hessian":[0.0,0.0,0.0,0.0,0.0,0.0,0.0],
"tree_param":{"num_deleted":"0","num_feature":"16","num_nodes":"7","size_leaf_vector":"0"}
},
{
"base_weights":[0.0,0.0,0.0,0.0,0.0,0.0,0.0],
"categories":[],"categories_nodes":[],"categories_segments":[],"categories_sizes":[],
"default_left":[true,true,true,false,false,false,false],
"id":74,
"left_children":[1,3,5,-1,-1,-1,-1],
"loss_changes":[0.0,0.0,0.0,0.0,0.0,0.0,0.0],
"parents":[2147483647,0,0,1,1,2,2],
"right_children":[2,4,6,-1,-1,-1,-1],
"split_conditions":[3.7023301124572754e+00,5.0827661132812500e+02,4.4065904617309570e+00,-3.7879156880080700e-03,1.2319373898208141e-02,5.9104422107338905e-03,1.5377203002572060e-02],
"split_indices":[6,10,6,0,0,0,0],
"split_type":[0,0,0,0,0,0,0],
"sum_hessian":[0.0,0.0,0.0,0.0,0.0,0.0,0.0],
"tree_param":{"num_deleted":"0","num_feature":"16","num_nodes":"7","size_leaf_vector":"0"}
},
{
"base_weights":[0.0,0.0,0.0,0.0,0.0,0.0,0.0],
"categories":[],"categories_nodes":[],"categories_segments":[],"categories_sizes":[],
"default_left":[true,true,true,false,false,false,false],
"id":75,
"left_children":[1,3,5,-1,-1,-1,-1],
"loss_changes":[0.0,0.0,0.0,0.0,0.0,0.0,0.0],
"parents":[2147483647,0,0,1,1,2,2],
"right_children":[2,4,6,-1,-1,-1,-1],
"split_conditions":[-1.6455914974212646e+00,2.6155113220214844e+01,1.5458617210388184e+00,-1.5778087254147977e-04,2.4033997207880020e-02,-8.3472486585378647e-03,5.4690055549144745e-03],
"split_indices":[2,8,2,0,0,0,0],
"split_type":[0,0,0,0,0,0,0],
"sum_hessian":[0.0,0.0,0.0,0.0,0.0,0.0,0.0],
"tree_param":{"num_deleted":"0","num_feature":"16","num_nodes":"7","size_leaf_vector":"0"}
},
{
"base_weights":[0.0,0.0,0.0,0.0,0.0],
"categories":[],"categories_nodes":[],"categories_segments":[],"categories_sizes":[],
"default_left":[true,true,false,false,false],
"id":76,
"left_children":[1,3,-1,-1,-1],
"loss_changes":[0.0,0.0,0.0,0.0,0.0],
"parents":[2147483647,0,0,1,1],
"right_children":[2,4,-1,-1,-1],
"split_conditions":[3.3020849227905273e+00,6.6759979724884033e-01,1.4069652184844017e-02,-1.6553929075598717e-02,-1.1219412408536300e-04],
"split_indices":[4,4,0,0,0],
"split_type":[0,0,0,0,0],
"sum_hessian":[0.0,0.0,0.0,0.0,0.0],
"tree_param":{"num_deleted":"0","num_feature":"16","num_nodes":"5","size_leaf_vector":"0"}
},
{
"base_weights":[0.0,0.0,0.0,0.0,0.0,0.0,0.0],
"categories":[],"categories_nodes":[],"categories_segments":[],"categories_sizes":[],
"default_left":[true,true,true,false,false,false,false],
"id":77,
"left_children":[1,3,5,-1,-1,-1,-1],
"loss_changes":[0.0,0.0,0.0,0.0,0.0,0.0,0.0],
"parents":[2147483647,0,0,1,1,2,2],
"right_children":[2,4,6,-1,-1,-1,-1],
"split_conditions":[-1.6455966234207153e+00,3.4286520481109619e+00,1.5458616018295288e+00,3.1828873325139284e-03,1.2847556732594967e-02,-1.0748860426247120e-02,4.7075049951672554e-03],
"split_indices":[1,6,1,0,0,0,0],
"split_type":[0,0,0,0,0,0,0],
"sum_hessian":[0.0,0.0,0.0,0.0,0.0,0.0,0.0],
"tree_param":{"num_deleted":"0","num_feature":"16","num_nodes":"7","size_leaf_vector":"0"}
},
{
"base_weights":[0.0,0.0,0.0,0.0,0.0,0.0,0.0],
"categories":[],"categories_nodes":[],"categories_segments":[],"categories_sizes":[],
"default_left":[true,true,true,false,false,false,false],
"id":78,
"left_children":[1,3,5,-1,-1,-1,-1],
"loss_changes":[0.0,0.0,0.0,0.0,0.0,0.0,0.0],
"parents":[2147483647,0,0,1,1,2,2],
"right_children":[2,4,6,-1,-1,-1,-1],
"split_conditions":[2.4390904903411865e+00,2.4330356121063232e+00,2.6155113220214844e+01,1.4335989020764828e-02,2.8550159186124802e-04,-9.6291201189160347e-03,8.1845894455909729e-03],
"split_indices":[5,6,8,0,0,0,0],
"split_type":[0,0,0,0,0,0,0],
"sum_hessian":[0.0,0.0,0.0,0.0,0.0,0.0,0.0],
"tree_param":{"num_deleted":"0","num_feature":"16","num_nodes":"7","size_leaf_vector":"0"}
},
{
"base_weights":[0.0,0.0,0.0,0.0,0.0,0.0,0.0],
"categories":[],"categories_nodes":[],"categories_segments":[],"categories_sizes":[],
"default_left":[true,true,true,false,false,false,false],
"id":79,
"left_children":[1,3,5,-1,-1,-1,-1],
"loss_changes":[0.0,0.0,0.0,0.0,0.0,0.0,0.0],
"parents":[2147483647,0,0,1,1,2,2],
"right_children":[2,4,6,-1,-1,-1,-1],
"split_conditions":[3.7023301124572754e+00,5.0827661132812500e+02,4.4065904617309570e+00,-3.4041497856378555e-03,1.1177830398082733e-02,5.2440320141613483e-03,1.3763562776148319e-02],
"split_indices":[6,10,6,0,0,0,0],
"split_type":[0,0,0,0,0,0,0],
"sum_hessian":[0.0,0.0,0.0,0.0,0.0,0.0,0.0],
"tree_param":{"num_deleted":"0","num_feature":"16","num_nodes":"7","size_leaf_vector":"0"}
},
{
"base_weights":[0.0,0.0,0.0,0.0,0.0],
"categories":[],"categories_nodes":[],"categories_segments":[],"categories_sizes":[],
"default_left":[true,true,false,false,false],
"id":80,
"left_children":[1,3,-1,-1,-1],
"loss_changes":[0.0,0.0,0.0,0.0,0.0],
"parents":[2147483647,0,0,1,1],
"right_children":[2,4,-1,-1,-1],
"split_conditions":[2.8423912525177002e+00,-1.4318832159042358e+00,1.0050580836832523e-02,4.6884464100003242e-03,-5.6152334436774254e-03],
"split_indices":[1,1,0,0,0],
"split_type":[0,0,0,0,0],
"sum_hessian":[0.0,0.0,0.0,0.0,0.0],
"tree_param":{"num_deleted":"0","num_feature":"16","num_nodes":"5","size_leaf_vector":"0"}
},
{
"base_weights":[0.0,0.0,0.0,0.0,0.0],
"categories":[],"categories_nodes":[],"categories_segments":[],"categories_sizes":[],
"default_left":[true,true,false,false,false],
"id":81,
"left_children":[1,3,-1,-1,-1],
"loss_changes":[0.0,0.0,0.0,0.0,0.0],
"parents":[2147483647,0,0,1,1],
"right_children":[2,4,-1,-1,-1],
"split_conditions":[3.3020849227905273e+00,6.6759979724884033e-01,1.2800015509128571e-02,-1.5255208127200603e-02,-9.2182897788006812e-05],
"split_indices":[4,4,0,0,0],
"split_type":[0,0,0,0,0],
"sum_hessian":[0.0,0.0,0.0,0.0,0.0],
"tree_param":{"num_deleted":"0","num_feature":"16","num_nodes":"5","size_leaf_vector":"0"}
},
{
"base_weights":[0.0,0.0,0.0,0.0,0.0,0.0,0.0],
"categories":[],"categories_nodes":[],"categories_segments":[],"categories_sizes":[],
"default_left":[true,true,true,false,false,false,false],
"id":82,
"left_children":[1,3,5,-1,-1,-1,-1],
"loss_changes":[0.0,0.0,0.0,0.0,0.0,0.0,0.0],
"parents":[2147483647,0,0,1,1,2,2],
"right_children":[2,4,6,-1,-1,-1,-1],
"split_conditions":[-1.6455914974212646e+00,2.6155113220214844e+01,1.0899400711059570e+00,-2.2882026678416878e-04,2.1312484517693520e-02,-8.1238057464361191e-03,3.6942590959370136e-03],
"split_indices":[2,8,2,0,0,0,0],
"split_type":[0,0,0,0,0,0,0],
"sum_hessian":[0.0,0.0,0.0,0.0,0.0,0.0,0.0],
"tree_param":{"num_deleted":"0","num_feature":"16","num_nodes":"7","size_leaf_vector":"0"}
},
{
"base_weights":[0.0,0.0,0.0,0.0,0.0,0.0,0.0],
"categories":[],"categories_nodes":[],"categories_segments":[],"categories_sizes":[],
"default_left":[true,true,true,false,false,false,false],
"id":83,
"left_children":[1,3,5,-1,-1,-1,-1],
"loss_changes":[0.0,0.0,0.0,0.0,0.0,0.0,0.0],
"parents":[2147483647,0,0,1,1,2,2],
"right_children":[2,4,6,-1,-1,-1,-1],
"split_conditions":[2.4390904903411865e+00,2.4884943962097168e+00,2.6155113220214844e+01,-1.0145768756046891e-03,9.2179561033844948e-03,-8.6548896506428719e-03,7.1727531030774117e-03],
"split_indices":[5,4,8,0,0,0,0],
"split_type":[0,0,0,0,0,0,0],
"sum_hessian":[0.0,0.0,0.0,0.0,0.0,0.0,0.0],
"tree_param":{"num_deleted":"0","num_feature":"16","num_nodes":"7","size_leaf_vector":"0"}
},
{
"base_weights":[0.0,0.0,0.0,0.0,0.0,0.0,0.0],
"categories":[],"categories_nodes":[],"categories_segments":[],"categories_sizes":[],
"default_left":[true,true,true,false,false,false,false],
"id":84,
"left_children":[1,3,5,-1,-1,-1,-1],
"loss_changes":[0.0,0.0,0.0,0.0,0.0,0.0,0.0],
"parents":[2147483647,0,0,1,1,2,2],
"right_children":[2,4,6,-1,-1,-1,-1],
"split_conditions":[3.7023301124572754e+00,2.8220033645629883e+00,1.0471917390823364e+00,3.9200172759592533e-03,-5.0727254711091518e-03,4.2287781834602356e-03,1.2495176866650581e-02],
"split_indices":[6,6,1,0,0,0,0],
"split_type":[0,0,0,0,0,0,0],
"sum_hessian":[0.0,0.0,0.0,0.0,0.0,0.0,0.0],
"tree_param":{"num_deleted":"0","num_feature":"16","num_nodes":"7","size_leaf_vector":"0"}
},
{
"base_weights":[0.0,0.0,0.0,0.0,0.0],
"categories":[],"categories_nodes":[],"categories_segments":[],"categories_sizes":[],
"default_left":[true,false,true,false,false],
"id":85,
"left_children":[1,-1,3,-1,-1],
"loss_changes":[0.0,0.0,0.0,0.0,0.0],
"parents":[2147483647,0,0,2,2],
"right_children":[2,-1,4,-1,-1],
"split_conditions":[-2.8423933982849121e+00,9.3841180205345154e-03,1.4318817853927612e+00,-4.9576614983379841e-03,3.9362744428217411e-03],
"split_indices":[1,0,1,0,0],
"split_type":[0,0,0,0,0],
"sum_hessian":[0.0,0.0,0.0,0.0,0.0],
"tree_param":{"num_deleted":"0","num_feature":"16","num_nodes":"5","size_leaf_vector":"0"}
},
{
"base_weights":[0.0,0.0,0.0,0.0,0.0],
"categories":[],"categories_nodes":[],"categories_segments":[],"categories_sizes":[],
"default_left":[true,false,true,false,false],
"id":86,
"left_children":[1,-1,3,-1,-1],
"loss_changes":[0.0,0.0,0.0,0.0,0.0],
"parents":[2147483647,0,0,2,2],
"right_children":[2,-1,4,-1,-1],
"split_conditions":[8.6131334304809570e-01,-9.5819272100925446e-03,1.9230712890625000e+01,-4.6744435094296932e-03,8.4367860108613968e-03],
"split_indices":[4,0,8,0,0],
"split_type":[0,0,0,0,0],
"sum_hessian":[0.0,0.0,0.0,0.0,0.0],
"tree_param":{"num_deleted":"0","num_feature":"16","num_nodes":"5","size_leaf_vector":"0"}
},
{
"base_weights":[0.0,0.0,0.0,0.0,0.0,0.0,0.0],
"categories":[],"categories_nodes":[],"categories_segments":[],"categories_sizes":[],
"default_left":[true,true,true,false,false,false,false],
"id":87,
"left_children":[1,3,5,-1,-1,-1,-1],
"loss_changes":[0.0,0.0,0.0,0.0,0.0,0.0,0.0],
"parents":[2147483647,0,0,1,1,2,2],
"right_children":[2,4,6,-1,-1,-1,-1],
"split_conditions":[-1.9447901248931885e+00,1.0471981763839722e+00,1.6883394718170166e+00,2.5997508782893419e-03,1.2147657573223114e-02,-5.6302919983863831e-03,4.7002309001982212e-03],
"split_indices":[2,3,2,0,0,0,0],
"split_type":[0,0,0,0,0,0,0],
"sum_hessian":[0.0,0.0,0.0,0.0,0.0,0.0,0.0],
"tree_param":{"num_deleted":"0","num_feature":"16","num_nodes":"7","size_leaf_vector":"0"}
},
{
"base_weights":[0.0,0.0,0.0,0.0,0.0,0.0,0.0],
"categories":[],"categories_nodes":[],"categories_segments":[],"categories_sizes":[],
"default_left":[true,true,true,false,false,false,false],
"id":88,
"left_children":[1,3,5,-1,-1,-1,-1],
"loss_changes":[0.0,0.0,0.0,0.0,0.0,0.0,0.0],
"parents":[2147483647,0,0,1,1,2,2],
"right_children":[2,4,6,-1,-1,-1,-1],
"split_conditions":[1.4852607727050781e+02,7.0511291503906250e+01,7.7045173645019531e+01,7.4504716321825981e-03,-9.3079572543501854e-03,9.2819826677441597e-03,1.2930053053423762e-03],
"split_indices":[0,0,15,0,0,0,0],
"split_type":[0,0,0,0,0,0,0],
"sum_hessian":[0.0,0.0,0.0,0.0,0.0,0.0,0.0],
"tree_param":{"num_deleted":"0","num_feature":"16","num_nodes":"7","size_leaf_vector":"0"}
},
{
"base_weights":[0.0,0.0,0.0,0.0,0.0,0.0,0.0],
"categories":[],"categories_nodes":[],"categories_segments":[],"categories_sizes":[],
"default_left":[true,true,true,false,false,false,false],
"id":89,
"left_children":[1,3,5,-1,-1,-1,-1],
"loss_changes":[0.0,0.0,0.0,0.0,0.0,0.0,0.0],
"parents":[2147483647,0,0,1,1,2,2],
"right_children":[2,4,6,-1,-1,-1,-1],
"split_conditions":[2.4390904903411865e+00,2.4330356121063232e+00,2.6155113220214844e+01,1.2342917732894421e-02,1.9904167857021093e-04,-7.6842578127980232e-03,5.6914952583611012e-03],
"split_indices":[5,6,8,0,0,0,0],
"split_type":[0,0,0,0,0,0,0],
"sum_hessian":[0.0,0.0,0.0,0.0,0.0,0.0,0.0],
"tree_param":{"num_deleted":"0","num_feature":"16","num_nodes":"7","size_leaf_vector":"0"}
},
{
"base_weights":[0.0,0.0,0.0,0.0,0.0],
"categories":[],"categories_nodes":[],"categories_segments":[],"categories_sizes":[],
"default_left":[true,true,false,false,false],
"id":90,
"left_children":[1,3,-1,-1,-1],
"loss_changes":[0.0,0.0,0.0,0.0,0.0],
"parents":[2147483647,0,0,1,1],
"right_children":[2,4,-1,-1,-1],
"split_conditions":[3.3020849227905273e+00,6.6759979724884033e-01,1.1409335769712925e-02,-1.3522020541131496e-02,-8.0152691225521266e-05],
"split_indices":[4,4,0,0,0],
"split_type":[0,0,0,0,0],
"sum_hessian":[0.0,0.0,0.0,0.0,0.0],
"tree_param":{"num_deleted":"0","num_feature":"16","num_nodes":"5","size_leaf_vector":"0"}
},
{
"base_weights":[0.0,0.0,0.0,0.0,0.0],
"categories":[],"categories_nodes":[],"categories_segments":[],"categories_sizes":[],
"default_left":[true,true,false,false,false],
"id":91,
"left_children":[1,3,-1,-1,-1],
"loss_changes":[0.0,0.0,0.0,0.0,0.0],
"parents":[2147483647,0,0,1,1],
"right_children":[2,4,-1,-1,-1],
"split_conditions":[4.2305240631103516e+00,5.0827661132812500e+02,1.0634999722242355e-02,-2.3803692311048508e-03,9.7618680447340012e-03],
"split_indices":[6,10,0,0,0],
"split_type":[0,0,0,0,0],
"sum_hessian":[0.0,0.0,0.0,0.0,0.0],
"tree_param":{"num_deleted":"0","num_feature":"16","num_nodes":"5","size_leaf_vector":"0"}
},
{
"base_weights":[0.0,0.0,0.0,0.0,0.0,0.0,0.0],
"categories":[],"categories_nodes":[],"categories_segments":[],"categories_sizes":[],
"default_left":[true,true,true,false,false,false,false],
"id":92,
"left_children":[1,3,5,-1,-1,-1,-1],
"loss_changes":[0.0,0.0,0.0,0.0,0.0,0.0,0.0],
"parents":[2147483647,0,0,1,1,2,2],
"right_children":[2,4,6,-1,-1,-1,-1],
"split_conditions":[-1.3463927507400513e+00,2.6155113220214844e+01,1.0044574737548828e+00,-2.7482668519951403e-04,1.6826819628477097e-02,-8.1609170883893967e-03,2.8426586650311947e-03],
"split_indices":[2,8,2,0,0,0,0],
"split_type":[0,0,0,0,0,0,0],
"sum_hessian":[0.0,0.0,0.0,0.0,0.0,0.0,0.0],
"tree_param":{"num_deleted":"0","num_feature":"16","num_nodes":"7","size_leaf_vector":"0"}
},
{
"base_weights":[0.0,0.0,0.0,0.0,0.0,0.0,0.0],
"categories":[],"categories_nodes":[],"categories_segments":[],"categories_sizes":[],
"default_left":[true,true,true,false,false,false,false],
"id":93,
"left_children":[1,3,5,-1,-1,-1,-1],
"loss_changes":[0.0,0.0,0.0,0.0,0.0,0.0,0.0],
"parents":[2147483647,0,0,1,1,2,2],
"right_children":[2,4,6,-1,-1,-1,-1],
"split_conditions":[-1.3463973999023438e+00,2.1593211364746094e+02,1.0044597387313843e+00,-2.4661291390657425e-03,6.4705968834459782e-03,-1.0735545307397842e-02,2.6875487528741360e-03],
"split_indices":[1,11,1,0,0,0,0],
"split_type":[0,0,0,0,0,0,0],
"sum_hessian":[0.0,0.0,0.0,0.0,0.0,0.0,0.0],
"tree_param":{"num_deleted":"0","num_feature":"16","num_nodes":"7","size_leaf_vector":"0"}
},
{
"base_weights":[0.0,0.0,0.0,0.0,0.0],
"categories":[],"categories_nodes":[],"categories_segments":[],"categories_sizes":[],
"default_left":[true,false,true,false,false],
"id":94,
"left_children":[1,-1,3,-1,-1],
"loss_changes":[0.0,0.0,0.0,0.0,0.0],
"parents":[2147483647,0,0,2,2],
"right_children":[2,-1,4,-1,-1],
"split_conditions":[8.6131334304809570e-01,-8.6726527661085129e-03,1.9230712890625000e+01,-3.9601773023605347e-03,7.3117273859679699e-03],
"split_indices":[4,0,8,0,0],
"split_type":[0,0,0,0,0],
"sum_hessian":[0.0,0.0,0.0,0.0,0.0],
"tree_param":{"num_deleted":"0","num_feature":"16","num_nodes":"5","size_leaf_vector":"0"}
},
{
"base_weights":[0.0,0.0,0.0,0.0,0.0,0.0,0.0],
"categories":[],"categories_nodes":[],"categories_segments":[],"categories_sizes":[],
"default_left":[true,true,true,false,false,false,false],
"id":95,
"left_children":[1,3,5,-1,-1,-1,-1],
"loss_changes":[0.0,0.0,0.0,0.0,0.0,0.0,0.0],
"parents":[2147483647,0,0,1,1,2,2],
"right_children":[2,4,6,-1,-1,-1,-1],
"split_conditions":[3.7023301124572754e+00,5.0827661132812500e+02,2.6610229015350342e+00,-2.7924964670091867e-03,9.4537362456321716e-03,1.0037984699010849e-02,2.8679666575044394e-03],
"split_indices":[6,10,5,0,0,0,0],
"split_type":[0,0,0,0,0,0,0],
"sum_hessian":[0.0,0.0,0.0,0.0,0.0,0.0,0.0],
"tree_param":{"num_deleted":"0","num_feature":"16","num_nodes":"7","size_leaf_vector":"0"}
},
{
"base_weights":[0.0,0.0,0.0,0.0,0.0],
"categories":[],"categories_nodes":[],"categories_segments":[],"categories_sizes":[],
"default_left":[true,true,false,false,false],
"id":96,
"left_children":[1,3,-1,-1,-1],
"loss_changes":[0.0,0.0,0.0,0.0,0.0],
"parents":[2147483647,0,0,1,1],
"right_children":[2,4,-1,-1,-1],
"split_conditions":[3.3020849227905273e+00,2.1177477836608887e+00,1.0242196731269360e-02,6.6437139175832272e-03,-2.0833478774875402e-03],
"split_indices":[4,6,0,0,0],
"split_type":[0,0,0,0,0],
"sum_hessian":[0.0,0.0,0.0,0.0,0.0],
"tree_param":{"num_deleted":"0","num_feature":"16","num_nodes":"5","size_leaf_vector":"0"}
},
{
"base_weights":[0.0,0.0,0.0,0.0,0.0,0.0,0.0],
"categories":[],"categories_nodes":[],"categories_segments":[],"categories_sizes":[],
"default_left":[true,true,true,false,false,false,false],
"id":97,
"left_children":[1,3,5,-1,-1,-1,-1],
"loss_changes":[0.0,0.0,0.0,0.0,0.0,0.0,0.0],
"parents":[2147483647,0,0,1,1,2,2],
"right_children":[2,4,6,-1,-1,-1,-1],
"split_conditions":[2.2038779258728027e+00,2.2172975540161133e+00,5.8224891662597656e+01,-1.8117296276614070e-03,8.6192497983574867e-03,-6.0890223830938339e-03,6.7275762557983398e-03],
"split_indices":[5,4,9,0,0,0,0],
"split_type":[0,0,0,0,0,0,0],
"sum_hessian":[0.0,0.0,0.0,0.0,0.0,0.0,0.0],
"tree_param":{"num_deleted":"0","num_feature":"16","num_nodes":"7","size_leaf_vector":"0"}
},
{
"base_weights":[0.0,0.0,0.0,0.0,0.0,0.0,0.0],
"categories":[],"categories_nodes":[],"categories_segments":[],"categories_sizes":[],
"default_left":[true,true,true,false,false,false,false],
"id":98,
"left_children":[1,3,5,-1,-1,-1,-1],
"loss_changes":[0.0,0.0,0.0,0.0,0.0,0.0,0.0],
"parents":[2147483647,0,0,1,1,2,2],
"right_children":[2,4,6,-1,-1,-1,-1],
"split_conditions":[-1.0471941232681274e+00,2.6155113220214844e+01,1.3463972806930542e+00,-1.7714635760057718e-04,1.3302578590810299e-02,-7.6730316504836082e-03,3.2113359775394201e-03],
"split_indices":[2,8,2,0,0,0,0],
"split_type":[0,0,0,0,0,0,0],
"sum_hessian":[0.0,0.0,0.0,0.0,0.0,0.0,0.0],
"tree_param":{"num_deleted":"0","num_feature":"16","num_nodes":"7","size_leaf_vector":"0"}
},
{
"base_weights":[0.0,0.0,0.0,0.0,0.0],
"categories":[],"categories_nodes":[],"categories_segments":[],"categories_sizes":[],
"default_left":[true,true,false,false,false],
"id":99,
"left_children":[1,3,-1,-1,-1],
"loss_changes":[0.0,0.0,0.0,0.0,0.0],
"parents":[2147483647,0,0,1,1],
"right_children":[2,4,-1,-1,-1],
"split_conditions":[4.2305240631103516e+00,2.2038779258728027e+00,9.4023700803518295e-03,2.1520147565752268e-03,-3.8597900420427322e-03],
"split_indices":[6,5,0,0,0],
"split_type":[0,0,0,0,0],
"sum_hessian":[0.0,0.0,0.0,0.0,0.0],
"tree_param":{"num_deleted":"0","num_feature":"16","num_nodes":"5","size_leaf_vector":"0"}
},
{
"base_weights":[0.0,0.0,0.0,0.0,0.0],
"categories":[],"categories_nodes":[],"categories_segments":[],"categories_sizes":[],
"default_left":[true,true,false,false,false],
"id":100,
"left_children":[1,3,-1,-1,-1],
"loss_changes":[0.0,0.0,0.0,0.0,0.0],
"parents":[2147483647,0,0,1,1],
"right_children":[2,4,-1,-1,-1],
"split_conditions":[2.8423912525177002e+00,-1.1469317674636841e+00,7.5369742698967457e-03,3.3183346968144178e-03,-4.4867172837257385e-03],
"split_indices":[1,1,0,0,0],
"split_type":[0,0,0,0,0],
"sum_hessian":[0.0,0.0,0.0,0.0,0.0],
"tree_param":{"num_deleted":"0","num_feature":"16","num_nodes":"5","size_leaf_vector":"0"}
},
{
"base_weights":[0.0,0.0,0.0,0.0,0.0],
"categories":[],"categories_nodes":[],"categories_segments":[],"categories_sizes":[],
"default_left":[true,false,true,false,false],
"id":101,
"left_children":[1,-1,3,-1,-1],
"loss_changes":[0.0,0.0,0.0,0.0,0.0],
"parents":[2147483647,0,0,2,2],
"right_children":[2,-1,4,-1,-1],
"split_conditions":[8.6131334304809570e-01,-7.8209200873970985e-03,1.9230712890625000e+01,-3.4582144580781460e-03,6.4649539999663830e-03],
"split_indices":[4,0,8,0,0],
"split_type":[0,0,0,0,0],
"sum_hessian":[0.0,0.0,0.0,0.0,0.0],
"tree_param":{"num_deleted":"0","num_feature":"16","num_nodes":"5","size_leaf_vector":"0"}
},
{
"base_weights":[0.0,0.0,0.0,0.0,0.0,0.0,0.0],
"categories":[],"categories_nodes":[],"categories_segments":[],"categories_sizes":[],
"default_left":[true,true,true,false,false,false,false],
"id":102,
"left_children":[1,3,5,-1,-1,-1,-1],
"loss_changes":[0.0,0.0,0.0,0.0,0.0,0.0,0.0],
"parents":[2147483647,0,0,1,1,2,2],
"right_children":[2,4,6,-1,-1,-1,-1],
"split_conditions":[3.7023301124572754e+00,2.9980678558349609e+00,4.0544610023498535e+00,2.1438766270875931e-03,-4.9159144982695580e-03,1.8709794385358691e-03,8.4962705150246620e-03],
"split_indices":[6,6,6,0,0,0,0],
"split_type":[0,0,0,0,0,0,0],
"sum_hessian":[0.0,0.0,0.0,0.0,0.0,0.0,0.0],
"tree_param":{"num_deleted":"0","num_feature":"16","num_nodes":"7","size_leaf_vector":"0"}
},
{
"base_weights":[0.0,0.0,0.0,0.0,0.0],
"categories":[],"categories_nodes":[],"categories_segments":[],"categories_sizes":[],
"default_left":[true,true,false,false,false],
"id":103,
"left_children":[1,3,-1,-1,-1],
"loss_changes":[0.0,0.0,0.0,0.0,0.0],
"parents":[2147483647,0,0,1,1],
"right_children":[2,4,-1,-1,-1],
"split_conditions":[3.3020849227905273e+00,6.6759979724884033e-01,9.1310925781726837e-03,-1.0782652534544468e-02,-6.5898631874006242e-05],
"split_indices":[4,4,0,0,0],
"split_type":[0,0,0,0,0],
"sum_hessian":[0.0,0.0,0.0,0.0,0.0],
"tree_param":{"num_deleted":"0","num_feature":"16","num_nodes":"5","size_leaf_vector":"0"}
},
{
"base_weights":[0.0,0.0,0.0,0.0,0.0],
"categories":[],"categories_nodes":[],"categories_segments":[],"categories_sizes":[],
"default_left":[true,false,true,false,false],
"id":104,
"left_children":[1,-1,3,-1,-1],
"loss_changes":[0.0,0.0,0.0,0.0,0.0],
"parents":[2147483647,0,0,2,2],
"right_children":[2,-1,4,-1,-1],
"split_conditions":[-2.8423933982849121e+00,7.1877655573189259e-03,9.1936332702636719e+01,-2.8765669558197260e-03,5.7883951812982559e-03],
"split_indices":[1,0,9,0,0],
"split_type":[0,0,0,0,0],
"sum_hessian":[0.0,0.0,0.0,0.0,0.0],
"tree_param":{"num_deleted":"0","num_feature":"16","num_nodes":"5","size_leaf_vector":"0"}
},
{
"base_weights":[0.0,0.0,0.0,0.0,0.0,0.0,0.0],
"categories":[],"categories_nodes":[],"categories_segments":[],"categories_sizes":[],
"default_left":[true,true,true,false,false,false,false],
"id":105,
"left_children":[1,3,5,-1,-1,-1,-1],
"loss_changes":[0.0,0.0,0.0,0.0,0.0,0.0,0.0],
"parents":[2147483647,0,0,1,1,2,2],
"right_children":[2,4,6,-1,-1,-1,-1],
"split_conditions":[1.6455944776535034e+00,-1.0899411439895630e+00,3.4055521488189697e+00,2.8327731415629387e-03,-8.3434963598847389e-03,1.2707101413980126e-03,1.0146675631403923e-02],
"split_indices":[1,1,6,0,0,0,0],
"split_type":[0,0,0,0,0,0,0],
"sum_hessian":[0.0,0.0,0.0,0.0,0.0,0.0,0.0],
"tree_param":{"num_deleted":"0","num_feature":"16","num_nodes":"7","size_leaf_vector":"0"}
},
{
"base_weights":[0.0,0.0,0.0,0.0,0.0,0.0,0.0],
"categories":[],"categories_nodes":[],"categories_segments":[],"categories_sizes":[],
"default_left":[true,true,true,false,false,false,false],
"id":106,
"left_children":[1,3,5,-1,-1,-1,-1],
"loss_changes":[0.0,0.0,0.0,0.0,0.0,0.0,0.0],
"parents":[2147483647,0,0,1,1,2,2],
"right_children":[2,4,6,-1,-1,-1,-1],
"split_conditions":[2.4390904903411865e+00,-2.2439925670623779e+00,5.8224891662597656e+01,-8.1944111734628677e-03,3.4332305658608675e-03,-5.8601424098014832e-03,5.8069378137588501e-03],
"split_indices":[5,3,9,0,0,0,0],
"split_type":[0,0,0,0,0,0,0],
"sum_hessian":[0.0,0.0,0.0,0.0,0.0,0.0,0.0],
"tree_param":{"num_deleted":"0","num_feature":"16","num_nodes":"7","size_leaf_vector":"0"}
},
{
"base_weights":[0.0,0.0,0.0,0.0,0.0],
"categories":[],"categories_nodes":[],"categories_segments":[],"categories_sizes":[],
"default_left":[true,true,false,false,false],
"id":107,
"left_children":[1,3,-1,-1,-1],
"loss_changes":[0.0,0.0,0.0,0.0,0.0],
"parents":[2147483647,0,0,1,1],
"right_children":[2,4,-1,-1,-1],
"split_conditions":[2.8423912525177002e+00,9.1935874938964844e+01,6.5931091085076332e-03,-2.7089742943644524e-03,5.4280809126794338e-03],
"split_indices":[1,9,0,0,0],
"split_type":[0,0,0,0,0],
"sum_hessian":[0.0,0.0,0.0,0.0,0.0],
"tree_param":{"num_deleted":"0","num_feature":"16","num_nodes":"5","size_leaf_vector":"0"}
},
{
"base_weights":[0.0,0.0,0.0,0.0,0.0],
"categories":[],"categories_nodes":[],"categories_segments":[],"categories_sizes":[],
"default_left":[true,true,false,false,false],
"id":108,
"left_children":[1,3,-1,-1,-1],
"loss_changes":[0.0,0.0,0.0,0.0,0.0],
"parents":[2147483647,0,0,1,1],
"right_children":[2,4,-1,-1,-1],
"split_conditions":[3.3020849227905273e+00,6.6759979724884033e-01,8.4834462031722069e-03,-1.0094018653035164e-02,-5.7605728216003627e-05],
"split_indices":[4,4,0,0,0],
"split_type":[0,0,0,0,0],
"sum_hessian":[0.0,0.0,0.0,0.0,0.0],
"tree_param":{"num_deleted":"0","num_feature":"16","num_nodes":"5","size_leaf_vector":"0"}
},
{
"base_weights":[0.0,0.0,0.0,0.0,0.0,0.0,0.0],
"categories":[],"categories_nodes":[],"categories_segments":[],"categories_sizes":[],
"default_left":[true,true,true,false,false,false,false],
"id":109,
"left_children":[1,3,5,-1,-1,-1,-1],
"loss_changes":[0.0,0.0,0.0,0.0,0.0,0.0,0.0],
"parents":[2147483647,0,0,1,1,2,2],
"right_children":[2,4,6,-1,-1,-1,-1],
"split_conditions":[1.0408345031738281e+02,1.2718737602233887e+01,3.6430209350585938e+02,-6.1995591968297958e-03,6.4531546086072922e-03,-1.3438161462545395e-02,1.9823694601655006e-03],
"split_indices":[14,8,11,0,0,0,0],
"split_type":[0,0,0,0,0,0,0],
"sum_hessian":[0.0,0.0,0.0,0.0,0.0,0.0,0.0],
"tree_param":{"num_deleted":"0","num_feature":"16","num_nodes":"7","size_leaf_vector":"0"}
},
{
"base_weights":[0.0,0.0,0.0,0.0,0.0,0.0,0.0],
"categories":[],"categories_nodes":[],"categories_segments":[],"categories_sizes":[],
"default_left":[true,true,true,false,false,false,false],
"id":110,
"left_children":[1,3,5,-1,-1,-1,-1],
"loss_changes":[0.0,0.0,0.0,0.0,0.0,0.0,0.0],
"parents":[2147483647,0,0,1,1,2,2],
"right_children":[2,4,6,-1,-1,-1,-1],
"split_conditions":[1.4852607727050781e+02,7.0511291503906250e+01,7.7045173645019531e+01,7.6861046254634857e-03,-8.6320145055651665e-03,7.5094490312039852e-03,2.7947562557528727e-05],
"split_indices":[0,0,15,0,0,0,0],
"split_type":[0,0,0,0,0,0,0],
"sum_hessian":[0.0,0.0,0.0,0.0,0.0,0.0,0.0],
"tree_param":{"num_deleted":"0","num_feature":"16","num_nodes":"7","size_leaf_vector":"0"}
},
{
"base_weights":[0.0,0.0,0.0,0.0,0.0,0.0,0.0],
"categories":[],"categories_nodes":[],"categories_segments":[],"categories_sizes":[],
"default_left":[true,true,true,false,false,false,false],
"id":111,
"left_children":[1,3,5,-1,-1,-1,-1],
"loss_changes":[0.0,0.0,0.0,0.0,0.0,0.0,0.0],
"parents":[2147483647,0,0,1,1,2,2],
"right_children":[2,4,6,-1,-1,-1,-1],
"split_conditions":[1.1325101852416992e+00,2.9456107616424561e+00,1.8230747222900391e+01,9.8393706139177084e-04,-1.0261125862598419e-02,-2.7543748728930950e-03,5.6605380959808826e-03],
"split_indices":[4,6,8,0,0,0,0],
"split_type":[0,0,0,0,0,0,0],
"sum_hessian":[0.0,0.0,0.0,0.0,0.0,0.0,0.0],
"tree_param":{"num_deleted":"0","num_feature":"16","num_nodes":"7","size_leaf_vector":"0"}
},
{
"base_weights":[0.0,0.0,0.0,0.0,0.0,0.0,0.0],
"categories":[],"categories_nodes":[],"categories_segments":[],"categories_sizes":[],
"default_left":[true,true,true,false,false,false,false],
"id":112,
"left_children":[1,3,5,-1,-1,-1,-1],
"loss_changes":[0.0,0.0,0.0,0.0,0.0,0.0,0.0],
"parents":[2147483647,0,0,1,1,2,2],
"right_children":[2,4,6,-1,-1,-1,-1],
"split_conditions":[3.7023301124572754e+00,5.0827661132812500e+02,4.0544610023498535e+00,-2.2794520482420921e-03,7.8050144948065281e-03,1.7085237195715308e-03,7.7761551365256310e-03],
"split_indices":[6,10,6,0,0,0,0],
"split_type":[0,0,0,0,0,0,0],
"sum_hessian":[0.0,0.0,0.0,0.0,0.0,0.0,0.0],
"tree_param":{"num_deleted":"0","num_feature":"16","num_nodes":"7","size_leaf_vector":"0"}
},
{
"base_weights":[0.0,0.0,0.0,0.0,0.0,0.0,0.0],
"categories":[],"categories_nodes":[],"categories_segments":[],"categories_sizes":[],
"default_left":[true,true,true,false,false,false,false],
"id":113,
"left_children":[1,3,5,-1,-1,-1,-1],
"loss_changes":[0.0,0.0,0.0,0.0,0.0,0.0,0.0],
"parents":[2147483647,0,0,1,1,2,2],
"right_children":[2,4,6,-1,-1,-1,-1],
"split_conditions":[2.2439913749694824e+00,-1.0899374485015869e+00,1.4678731918334961e+01,3.1180682126432657e-03,-4.5911814086139202e-03,-2.1097892895340919e-03,1.3551519252359867e-02],
"split_indices":[2,2,8,0,0,0,0],
"split_type":[0,0,0,0,0,0,0],
"sum_hessian":[0.0,0.0,0.0,0.0,0.0,0.0,0.0],
"tree_param":{"num_deleted":"0","num_feature":"16","num_nodes":"7","size_leaf_vector":"0"}
},
{
"base_weights":[0.0,0.0,0.0,0.0,0.0,0.0,0.0],
"categories":[],"categories_nodes":[],"categories_segments":[],"categories_sizes":[],
"default_left":[true,true,true,false,false,false,false],
"id":114,
"left_children":[1,3,5,-1,-1,-1,-1],
"loss_changes":[0.0,0.0,0.0,0.0,0.0,0.0,0.0],
"parents":[2147483647,0,0,1,1,2,2],
"right_children":[2,4,6,-1,-1,-1,-1],
"split_conditions":[1.9447927474975586e+00,-1.4461262226104736e+00,2.0727443695068359e+01,3.3425225410610437e-03,-4.4252737425267696e-03,-6.3315720763057470e-04,1.3368839398026466e-02],
"split_indices":[2,2,8,0,0,0,0],
"split_type":[0,0,0,0,0,0,0],
"sum_hessian":[0.0,0.0,0.0,0.0,0.0,0.0,0.0],
"tree_param":{"num_deleted":"0","num_feature":"16","num_nodes":"7","size_leaf_vector":"0"}
},
{
"base_weights":[0.0,0.0,0.0,0.0,0.0,0.0,0.0],
"categories":[],"categories_nodes":[],"categories_segments":[],"categories_sizes":[],
"default_left":[true,true,true,false,false,false,false],
"id":115,
"left_children":[1,3,5,-1,-1,-1,-1],
"loss_changes":[0.0,0.0,0.0,0.0,0.0,0.0,0.0],
"parents":[2147483647,0,0,1,1,2,2],
"right_children":[2,4,6,-1,-1,-1,-1],
"split_conditions":[3.7023301124572754e+00,2.9980678558349609e+00,2.6610229015350342e+00,1.6704947920516133e-03,-3.9744358509778976e-03,7.5669805519282818e-03,1.9045670051127672e-03],
"split_indices":[6,6,5,0,0,0,0],
"split_type":[0,0,0,0,0,0,0],
"sum_hessian":[0.0,0.0,0.0,0.0,0.0,0.0,0.0],
"tree_param":{"num_deleted":"0","num_feature":"16","num_nodes":"7","size_leaf_vector":"0"}
},
{
"base_weights":[0.0,0.0,0.0,0.0,0.0,0.0,0.0],
"categories":[],"categories_nodes":[],"categories_segments":[],"categories_sizes":[],
"default_left":[true,true,true,false,false,false,false],
"id":116,
"left_children":[1,3,5,-1,-1,-1,-1],
"loss_changes":[0.0,0.0,0.0,0.0,0.0,0.0,0.0],
"parents":[2147483647,0,0,1,1,2,2],
"right_children":[2,4,6,-1,-1,-1,-1],
"split_conditions":[2.6743030548095703e+00,1.0415768432617188e+02,1.8528100585937500e+02,3.7711956538259983e-03,-2.9182119760662317e-03,-1.2138020247220993e-02,7.1529956767335534e-04],
"split_indices":[5,14,11,0,0,0,0],
"split_type":[0,0,0,0,0,0,0],
"sum_hessian":[0.0,0.0,0.0,0.0,0.0,0.0,0.0],
"tree_param":{"num_deleted":"0","num_feature":"16","num_nodes":"7","size_leaf_vector":"0"}
},
{
"base_weights":[0.0,0.0,0.0,0.0,0.0,0.0,0.0],
"categories":[],"categories_nodes":[],"categories_segments":[],"categories_sizes":[],
"default_left":[true,true,true,false,false,false,false],
"id":117,
"left_children":[1,3,5,-1,-1,-1,-1],
"loss_changes":[0.0,0.0,0.0,0.0,0.0,0.0,0.0],
"parents":[2147483647,0,0,1,1,2,2],
"right_children":[2,4,6,-1,-1,-1,-1],
"split_conditions":[1.1325101852416992e+00,2.9456107616424561e+00,1.8230747222900391e+01,5.6329107610508800e-04,-9.0700956061482430e-03,-2.3124581202864647e-03,4.9072215333580971e-03],
"split_indices":[4,6,8,0,0,0,0],
"split_type":[0,0,0,0,0,0,0],
"sum_hessian":[0.0,0.0,0.0,0.0,0.0,0.0,0.0],
"tree_param":{"num_deleted":"0","num_feature":"16","num_nodes":"7","size_leaf_vector":"0"}
},
{
"base_weights":[0.0,0.0,0.0,0.0,0.0,0.0,0.0],
"categories":[],"categories_nodes":[],"categories_segments":[],"categories_sizes":[],
"default_left":[true,true,true,false,false,false,false],
"id":118,
"left_children":[1,3,5,-1,-1,-1,-1],
"loss_changes":[0.0,0.0,0.0,0.0,0.0,0.0,0.0],
"parents":[2147483647,0,0,1,1,2,2],
"right_children":[2,4,6,-1,-1,-1,-1],
"split_conditions":[1.4852607727050781e+02,1.1601977539062500e+02,7.7045173645019531e+01,-4.6062222681939602e-03,1.6259346157312393e-02,6.7843673750758171e-03,-5.6105429393937811e-05],
"split_indices":[0,0,15,0,0,0,0],
"split_type":[0,0,0,0,0,0,0],
"sum_hessian":[0.0,0.0,0.0,0.0,0.0,0.0,0.0],
"tree_param":{"num_deleted":"0","num_feature":"16","num_nodes":"7","size_leaf_vector":"0"}
},
{
"base_weights":[0.0,0.0,0.0,0.0,0.0],
"categories":[],"categories_nodes":[],"categories_segments":[],"categories_sizes":[],
"default_left":[true,false,true,false,false],
"id":119,
"left_children":[1,-1,3,-1,-1],
"loss_changes":[0.0,0.0,0.0,0.0,0.0],
"parents":[2147483647,0,0,2,2],
"right_children":[2,-1,4,-1,-1],
"split_conditions":[-2.8423933982849121e+00,5.9691956266760826e-03,1.4318817853927612e+00,-3.2720896415412426e-03,2.6634121313691139e-03],
"split_indices":[1,0,1,0,0],
"split_type":[0,0,0,0,0],
"sum_hessian":[0.0,0.0,0.0,0.0,0.0],
"tree_param":{"num_deleted":"0","num_feature":"16","num_nodes":"5","size_leaf_vector":"0"}
},
{
"base_weights":[0.0,0.0,0.0,0.0,0.0,0.0,0.0],
"categories":[],"categories_nodes":[],"categories_segments":[],"categories_sizes":[],
"default_left":[true,true,true,false,false,false,false],
"id":120,
"left_children":[1,3,5,-1,-1,-1,-1],
"loss_changes":[0.0,0.0,0.0,0.0,0.0,0.0,0.0],
"parents":[2147483647,0,0,1,1,2,2],
"right_children":[2,4,6,-1,-1,-1,-1],
"split_conditions":[-1.0471981763839722e+00,3.4451670646667480e+00,9.4746571779251099e-01,1.0050294222310185e-03,7.8808693215250969e-03,-9.4609567895531654e-03,2.0617046393454075e-03],
"split_indices":[1,6,1,0,0,0,0],
"split_type":[0,0,0,0,0,0,0],
"sum_hessian":[0.0,0.0,0.0,0.0,0.0,0.0,0.0],
"tree_param":{"num_deleted":"0","num_feature":"16","num_nodes":"7","size_leaf_vector":"0"}
},
{
"base_weights":[0.0,0.0,0.0,0.0,0.0,0.0,0.0],
"categories":[],"categories_nodes":[],"categories_segments":[],"categories_sizes":[],
"default_left":[true,true,true,false,false,false,false],
"id":121,
"left_children":[1,3,5,-1,-1,-1,-1],
"loss_changes":[0.0,0.0,0.0,0.0,0.0,0.0,0.0],
"parents":[2147483647,0,0,1,1,2,2],
"right_children":[2,4,6,-1,-1,-1,-1],
"split_conditions":[1.9686652421951294e+00,-1.9447820186614990e+00,5.8224891662597656e+01,-8.1764711067080498e-03,4.4710612855851650e-03,-4.4372212141752243e-03,5.5060558952391148e-03],
"split_indices":[5,3,9,0,0,0,0],
"split_type":[0,0,0,0,0,0,0],
"sum_hessian":[0.0,0.0,0.0,0.0,0.0,0.0,0.0],
"tree_param":{"num_deleted":"0","num_feature":"16","num_nodes":"7","size_leaf_vector":"0"}
},
{
"base_weights":[0.0,0.0,0.0,0.0,0.0,0.0,0.0],
"categories":[],"categories_nodes":[],"categories_segments":[],"categories_sizes":[],
"default_left":[true,true,true,false,false,false,false],
"id":122,
"left_children":[1,3,5,-1,-1,-1,-1],
"loss_changes":[0.0,0.0,0.0,0.0,0.0,0.0,0.0],
"parents":[2147483647,0,0,1,1,2,2],
"right_children":[2,4,6,-1,-1,-1,-1],
"split_conditions":[1.0408345031738281e+02,2.1691981506347656e+02,3.6430209350585938e+02,-4.9456777051091194e-03,5.6406040675938129e-03,-1.1954189278185368e-02,1.6313400119543076e-03],
"split_indices":[14,10,11,0,0,0,0],
"split_type":[0,0,0,0,0,0,0],
"sum_hessian":[0.0,0.0,0.0,0.0,0.0,0.0,0.0],
"tree_param":{"num_deleted":"0","num_feature":"16","num_nodes":"7","size_leaf_vector":"0"}
},
{
"base_weights":[0.0,0.0,0.0,0.0,0.0],
"categories":[],"categories_nodes":[],"categories_segments":[],"categories_sizes":[],
"default_left":[true,true,false,false,false],
"id":123,
"left_children":[1,3,-1,-1,-1],
"loss_changes":[0.0,0.0,0.0,0.0,0.0],
"parents":[2147483647,0,0,1,1],
"right_children":[2,4,-1,-1,-1],
"split_conditions":[7.7029060363769531e+01,1.2571109008789062e+02,-5.1538418047130108e-03,-2.5555144529789686e-03,1.1429046280682087e-02],
"split_indices":[15,0,0,0,0],
"split_type":[0,0,0,0,0],
"sum_hessian":[0.0,0.0,0.0,0.0,0.0],
"tree_param":{"num_deleted":"0","num_feature":"16","num_nodes":"5","size_leaf_vector":"0"}
},
{
"base_weights":[0.0,0.0,0.0,0.0,0.0],
"categories":[],"categories_nodes":[],"categories_segments":[],"categories_sizes":[],
"default_left":[true,true,false,false,false],
"id":124,
"left_children":[1,3,-1,-1,-1],
"loss_changes":[0.0,0.0,0.0,0.0,0.0],
"parents":[2147483647,0,0,1,1],
"right_children":[2,4,-1,-1,-1],
"split_conditions":[4.2305240631103516e+00,5.0827661132812500e+02,6.7995646968483925e-03,-1.5569870593026280e-03,6.5101110376417637e-03],
"split_indices":[6,10,0,0,0],
"split_type":[0,0,0,0,0],
"sum_hessian":[0.0,0.0,0.0,0.0,0.0],
"tree_param":{"num_deleted":"0","num_feature":"16","num_nodes":"5","size_leaf_vector":"0"}
},
{
"base_weights":[0.0,0.0,0.0,0.0,0.0,0.0,0.0],
"categories":[],"categories_nodes":[],"categories_segments":[],"categories_sizes":[],
"default_left":[true,true,true,false,false,false,false],
"id":125,
"left_children":[1,3,5,-1,-1,-1,-1],
"loss_changes":[0.0,0.0,0.0,0.0,0.0,0.0,0.0],
"parents":[2147483647,0,0,1,1,2,2],
"right_children":[2,4,6,-1,-1,-1,-1],
"split_conditions":[1.0408345031738281e+02,1.2718737602233887e+01,3.6430209350585938e+02,-4.7041215002536774e-03,5.1954006776213646e-03,-1.1008817702531815e-02,1.2268363498151302e-03],
"split_indices":[14,8,11,0,0,0,0],
"split_type":[0,0,0,0,0,0,0],
"sum_hessian":[0.0,0.0,0.0,0.0,0.0,0.0,0.0],
"tree_param":{"num_deleted":"0","num_feature":"16","num_nodes":"7","size_leaf_vector":"0"}
},
{
"base_weights":[0.0,0.0,0.0,0.0,0.0,0.0,0.0],
"categories":[],"categories_nodes":[],"categories_segments":[],"categories_sizes":[],
"default_left":[true,true,true,false,false,false,false],
"id":126,
"left_children":[1,3,5,-1,-1,-1,-1],
"loss_changes":[0.0,0.0,0.0,0.0,0.0,0.0,0.0],
"parents":[2147483647,0,0,1,1,2,2],
"right_children":[2,4,6,-1,-1,-1,-1],
"split_conditions":[-2.2439887523651123e+00,7.4800264835357666e-01,1.6028513908386230e+00,4.7412820276804268e-04,9.9147185683250427e-03,-3.1352217774838209e-03,2.8789204079657793e-03],
"split_indices":[2,3,2,0,0,0,0],
"split_type":[0,0,0,0,0,0,0],
"sum_hessian":[0.0,0.0,0.0,0.0,0.0,0.0,0.0],
"tree_param":{"num_deleted":"0","num_feature":"16","num_nodes":"7","size_leaf_vector":"0"}
},
{
"base_weights":[0.0,0.0,0.0,0.0,0.0],
"categories":[],"categories_nodes":[],"categories_segments":[],"categories_sizes":[],
"default_left":[true,true,false,false,false],
"id":127,
"left_children":[1,3,-1,-1,-1],
"loss_changes":[0.0,0.0,0.0,0.0,0.0],
"parents":[2147483647,0,0,1,1],
"right_children":[2,4,-1,-1,-1],
"split_conditions":[3.3020849227905273e+00,6.6759979724884033e-01,6.9314544089138508e-03,-8.7999366223812103e-03,-8.2819669842137955e-06],
"split_indices":[4,4,0,0,0],
"split_type":[0,0,0,0,0],
"sum_hessian":[0.0,0.0,0.0,0.0,0.0],
"tree_param":{"num_deleted":"0","num_feature":"16","num_nodes":"5","size_leaf_vector":"0"}
},
{
"base_weights":[0.0,0.0,0.0,0.0,0.0],
"categories":[],"categories_nodes":[],"categories_segments":[],"categories_sizes":[],
"default_left":[true,true,false,false,false],
"id":128,
"left_children":[1,3,-1,-1,-1],
"loss_changes":[0.0,0.0,0.0,0.0,0.0],
"parents":[2147483647,0,0,1,1],
"right_children":[2,4,-1,-1,-1],
"split_conditions":[7.7029060363769531e+01,6.8855735778808594e+01,-4.7780419699847698e-03,8.8306032121181488e-03,-4.0889736264944077e-03],
"split_indices":[15,0,0,0,0],
"split_type":[0,0,0,0,0],
"sum_hessian":[0.0,0.0,0.0,0.0,0.0],
"tree_param":{"num_deleted":"0","num_feature":"16","num_nodes":"5","size_leaf_vector":"0"}
},
{
"base_weights":[0.0,0.0,0.0,0.0,0.0,0.0,0.0],
"categories":[],"categories_nodes":[],"categories_segments":[],"categories_sizes":[],
"default_left":[true,true,true,false,false,false,false],
"id":129,
"left_children":[1,3,5,-1,-1,-1,-1],
"loss_changes":[0.0,0.0,0.0,0.0,0.0,0.0,0.0],
"parents":[2147483647,0,0,1,1,2,2],
"right_children":[2,4,6,-1,-1,-1,-1],
"split_conditions":[1.4852607727050781e+02,7.0511291503906250e+01,2.9056546688079834e+00,7.1924016810953617e-03,-7.8455246984958649e-03,8.4440695354714990e-04,5.9625566937029362e-03],
"split_indices":[0,0,4,0,0,0,0],
"split_type":[0,0,0,0,0,0,0],
"sum_hessian":[0.0,0.0,0.0,0.0,0.0,0.0,0.0],
"tree_param":{"num_deleted":"0","num_feature":"16","num_nodes":"7","size_leaf_vector":"0"}
},
{
"base_weights":[0.0,0.0,0.0,0.0,0.0,0.0,0.0],
"categories":[],"categories_nodes":[],"categories_segments":[],"categories_sizes":[],
"default_left":[true,true,true,false,false,false,false],
"id":130,
"left_children":[1,3,5,-1,-1,-1,-1],
"loss_changes":[0.0,0.0,0.0,0.0,0.0,0.0,0.0],
"parents":[2147483647,0,0,1,1,2,2],
"right_children":[2,4,6,-1,-1,-1,-1],
"split_conditions":[1.1325101852416992e+00,2.9456107616424561e+00,5.0827661132812500e+02,2.3300573957385495e-05,-8.4805237129330635e-03,-4.7639821423217654e-04,1.2389727868139744e-02],
"split_indices":[4,6,10,0,0,0,0],
"split_type":[0,0,0,0,0,0,0],
"sum_hessian":[0.0,0.0,0.0,0.0,0.0,0.0,0.0],
"tree_param":{"num_deleted":"0","num_feature":"16","num_nodes":"7","size_leaf_vector":"0"}
},
{
"base_weights":[0.0,0.0,0.0,0.0,0.0],
"categories":[],"categories_nodes":[],"categories_segments":[],"categories_sizes":[],
"default_left":[true,false,true,false,false],
"id":131,
"left_children":[1,-1,3,-1,-1],
"loss_changes":[0.0,0.0,0.0,0.0,0.0],
"parents":[2147483647,0,0,2,2],
"right_children":[2,-1,4,-1,-1],
"split_conditions":[8.6131334304809570e-01,-5.7587558403611183e-03,1.9230712890625000e+01,-1.8551121465861797e-03,3.8504260592162609e-03],
"split_indices":[4,0,8,0,0],
"split_type":[0,0,0,0,0],
"sum_hessian":[0.0,0.0,0.0,0.0,0.0],
"tree_param":{"num_deleted":"0","num_feature":"16","num_nodes":"5","size_leaf_vector":"0"}
},
{
"base_weights":[0.0,0.0,0.0,0.0,0.0,0.0,0.0],
"categories":[],"categories_nodes":[],"categories_segments":[],"categories_sizes":[],
"default_left":[true,true,true,false,false,false,false],
"id":132,
"left_children":[1,3,5,-1,-1,-1,-1],
"loss_changes":[0.0,0.0,0.0,0.0,0.0,0.0,0.0],
"parents":[2147483647,0,0,1,1,2,2],
"right_children":[2,4,6,-1,-1,-1,-1],
"split_conditions":[3.7023301124572754e+00,5.0827661132812500e+02,4.4065904617309570e+00,-1.7731772968545556e-03,5.9448787942528725e-03,2.3275704588741064e-03,7.6593984849750996e-03],
"split_indices":[6,10,6,0,0,0,0],
"split_type":[0,0,0,0,0,0,0],
"sum_hessian":[0.0,0.0,0.0,0.0,0.0,0.0,0.0],
"tree_param":{"num_deleted":"0","num_feature":"16","num_nodes":"7","size_leaf_vector":"0"}
},
{
"base_weights":[0.0,0.0,0.0,0.0,0.0],
"categories":[],"categories_nodes":[],"categories_segments":[],"categories_sizes":[],
"default_left":[true,true,false,false,false],
"id":133,
"left_children":[1,3,-1,-1,-1],
"loss_changes":[0.0,0.0,0.0,0.0,0.0],
"parents":[2147483647,0,0,1,1],
"right_children":[2,4,-1,-1,-1],
"split_conditions":[7.7029060363769531e+01,1.2571109008789062e+02,-4.9811499193310738e-03,-2.3634505923837423e-03,1.0728823952376842e-02],
"split_indices":[15,0,0,0,0],
"split_type":[0,0,0,0,0],
"sum_hessian":[0.0,0.0,0.0,0.0,0.0],
"tree_param":{"num_deleted":"0","num_feature":"16","num_nodes":"5","size_leaf_vector":"0"}
},
{
"base_weights":[0.0,0.0,0.0,0.0,0.0,0.0,0.0],
"categories":[],"categories_nodes":[],"categories_segments":[],"categories_sizes":[],
"default_left":[true,true,true,false,false,false,false],
"id":134,
"left_children":[1,3,5,-1,-1,-1,-1],
"loss_changes":[0.0,0.0,0.0,0.0,0.0,0.0,0.0],
"parents":[2147483647,0,0,1,1,2,2],
"right_children":[2,4,6,-1,-1,-1,-1],
"split_conditions":[-1.0471981763839722e+00,3.4451670646667480e+00,9.4746571779251099e-01,9.8924490157514811e-04,6.9312602281570435e-03,-8.5447793826460838e-03,1.8089909572154284e-03],
"split_indices":[1,6,1,0,0,0,0],
"split_type":[0,0,0,0,0,0,0],
"sum_hessian":[0.0,0.0,0.0,0.0,0.0,0.0,0.0],
"tree_param":{"num_deleted":"0","num_feature":"16","num_nodes":"7","size_leaf_vector":"0"}
},
{
"base_weights":[0.0,0.0,0.0,0.0,0.0,0.0,0.0],
"categories":[],"categories_nodes":[],"categories_segments":[],"categories_sizes":[],
"default_left":[true,true,true,false,false,false,false],
"id":135,
"left_children":[1,3,5,-1,-1,-1,-1],
"loss_changes":[0.0,0.0,0.0,0.0,0.0,0.0,0.0],
"parents":[2147483647,0,0,1,1,2,2],
"right_children":[2,4,6,-1,-1,-1,-1],
"split_conditions":[1.0408345031738281e+02,1.8466932678222656e+02,3.6430209350585938e+02,-9.2876311391592026e-03,3.7377837579697371e-03,-9.6422415226697922e-03,1.0475374292582273e-03],
"split_indices":[14,11,11,0,0,0,0],
"split_type":[0,0,0,0,0,0,0],
"sum_hessian":[0.0,0.0,0.0,0.0,0.0,0.0,0.0],
"tree_param":{"num_deleted":"0","num_feature":"16","num_nodes":"7","size_leaf_vector":"0"}
},
{
"base_weights":[0.0,0.0,0.0,0.0,0.0,0.0,0.0],
"categories":[],"categories_nodes":[],"categories_segments":[],"categories_sizes":[],
"default_left":[true,true,true,false,false,false,false],
"id":136,
"left_children":[1,3,5,-1,-1,-1,-1],
"loss_changes":[0.0,0.0,0.0,0.0,0.0,0.0,0.0],
"parents":[2147483647,0,0,1,1,2,2],
"right_children":[2,4,6,-1,-1,-1,-1],
"split_conditions":[2.2439796924591064e+00,2.4390904903411865e+00,-7.4802583456039429e-01,2.5587871205061674e-03,-2.2256281226873398e-03,2.1675452589988708e-03,-8.6147375404834747e-03],
"split_indices":[3,5,2,0,0,0,0],
"split_type":[0,0,0,0,0,0,0],
"sum_hessian":[0.0,0.0,0.0,0.0,0.0,0.0,0.0],
"tree_param":{"num_deleted":"0","num_feature":"16","num_nodes":"7","size_leaf_vector":"0"}
},
{
"base_weights":[0.0,0.0,0.0,0.0,0.0],
"categories":[],"categories_nodes":[],"categories_segments":[],"categories_sizes":[],
"default_left":[true,true,false,false,false],
"id":137,
"left_children":[1,3,-1,-1,-1],
"loss_changes":[0.0,0.0,0.0,0.0,0.0],
"parents":[2147483647,0,0,1,1],
"right_children":[2,4,-1,-1,-1],
"split_conditions":[7.7029060363769531e+01,6.8855735778808594e+01,-4.4723865576088428e-03,7.8361220657825470e-03,-3.6083669401705265e-03],
"split_indices":[15,0,0,0,0],
"split_type":[0,0,0,0,0],
"sum_hessian":[0.0,0.0,0.0,0.0,0.0],
